{"learner":{"attributes":{"best_iteration":"94","best_score":"0.749248686896679"},"feature_names":["CNT_CHILDREN","AMT_INCOME_TOTAL","AMT_CREDIT","AMT_ANNUITY","AMT_GOODS_PRICE","REGION_POPULATION_RELATIVE","DAYS_BIRTH","DAYS_EMPLOYED","DAYS_REGISTRATION","DAYS_ID_PUBLISH","OWN_CAR_AGE","FLAG_MOBIL","FLAG_EMP_PHONE","FLAG_WORK_PHONE","FLAG_CONT_MOBILE","FLAG_PHONE","FLAG_EMAIL","CNT_FAM_MEMBERS","REGION_RATING_CLIENT","REGION_RATING_CLIENT_W_CITY","HOUR_APPR_PROCESS_START","REG_REGION_NOT_LIVE_REGION","REG_REGION_NOT_WORK_REGION","LIVE_REGION_NOT_WORK_REGION","REG_CITY_NOT_LIVE_CITY","REG_CITY_NOT_WORK_CITY","LIVE_CITY_NOT_WORK_CITY","EXT_SOURCE_1","EXT_SOURCE_2","EXT_SOURCE_3","APARTMENTS_AVG","BASEMENTAREA_AVG","YEARS_BEGINEXPLUATATION_AVG","YEARS_BUILD_AVG","COMMONAREA_AVG","ELEVATORS_AVG","ENTRANCES_AVG","FLOORSMAX_AVG","FLOORSMIN_AVG","LANDAREA_AVG","LIVINGAPARTMENTS_AVG","LIVINGAREA_AVG","NONLIVINGAPARTMENTS_AVG","NONLIVINGAREA_AVG","APARTMENTS_MODE","BASEMENTAREA_MODE","YEARS_BEGINEXPLUATATION_MODE","YEARS_BUILD_MODE","COMMONAREA_MODE","ELEVATORS_MODE","ENTRANCES_MODE","FLOORSMAX_MODE","FLOORSMIN_MODE","LANDAREA_MODE","LIVINGAPARTMENTS_MODE","LIVINGAREA_MODE","NONLIVINGAPARTMENTS_MODE","NONLIVINGAREA_MODE","APARTMENTS_MEDI","BASEMENTAREA_MEDI","YEARS_BEGINEXPLUATATION_MEDI","YEARS_BUILD_MEDI","COMMONAREA_MEDI","ELEVATORS_MEDI","ENTRANCES_MEDI","FLOORSMAX_MEDI","FLOORSMIN_MEDI","LANDAREA_MEDI","LIVINGAPARTMENTS_MEDI","LIVINGAREA_MEDI","NONLIVINGAPARTMENTS_MEDI","NONLIVINGAREA_MEDI","TOTALAREA_MODE","OBS_30_CNT_SOCIAL_CIRCLE","DEF_30_CNT_SOCIAL_CIRCLE","OBS_60_CNT_SOCIAL_CIRCLE","DEF_60_CNT_SOCIAL_CIRCLE","DAYS_LAST_PHONE_CHANGE","FLAG_DOCUMENT_2","FLAG_DOCUMENT_3","FLAG_DOCUMENT_4","FLAG_DOCUMENT_5","FLAG_DOCUMENT_6","FLAG_DOCUMENT_7","FLAG_DOCUMENT_8","FLAG_DOCUMENT_9","FLAG_DOCUMENT_10","FLAG_DOCUMENT_11","FLAG_DOCUMENT_12","FLAG_DOCUMENT_13","FLAG_DOCUMENT_14","FLAG_DOCUMENT_15","FLAG_DOCUMENT_16","FLAG_DOCUMENT_17","FLAG_DOCUMENT_18","FLAG_DOCUMENT_19","FLAG_DOCUMENT_20","FLAG_DOCUMENT_21","AMT_REQ_CREDIT_BUREAU_HOUR","AMT_REQ_CREDIT_BUREAU_DAY","AMT_REQ_CREDIT_BUREAU_WEEK","AMT_REQ_CREDIT_BUREAU_MON","AMT_REQ_CREDIT_BUREAU_QRT","AMT_REQ_CREDIT_BUREAU_YEAR"],"feature_types":["int","float","float","float","float","float","int","int","float","int","float","int","int","int","int","int","int","float","int","int","int","int","int","int","int","int","int","float","float","float","float","float","float","float","float","float","float","float","float","float","float","float","float","float","float","float","float","float","float","float","float","float","float","float","float","float","float","float","float","float","float","float","float","float","float","float","float","float","float","float","float","float","float","float","float","float","float","float","int","int","int","int","int","int","int","int","int","int","int","int","int","int","int","int","int","int","int","int","float","float","float","float","float","float"],"gradient_booster":{"model":{"gbtree_model_param":{"num_parallel_tree":"1","num_trees":"100"},"iteration_indptr":[0,1,2,3,4,5,6,7,8,9,10,11,12,13,14,15,16,17,18,19,20,21,22,23,24,25,26,27,28,29,30,31,32,33,34,35,36,37,38,39,40,41,42,43,44,45,46,47,48,49,50,51,52,53,54,55,56,57,58,59,60,61,62,63,64,65,66,67,68,69,70,71,72,73,74,75,76,77,78,79,80,81,82,83,84,85,86,87,88,89,90,91,92,93,94,95,96,97,98,99,100],"tree_info":[0,0,0,0,0,0,0,0,0,0,0,0,0,0,0,0,0,0,0,0,0,0,0,0,0,0,0,0,0,0,0,0,0,0,0,0,0,0,0,0,0,0,0,0,0,0,0,0,0,0,0,0,0,0,0,0,0,0,0,0,0,0,0,0,0,0,0,0,0,0,0,0,0,0,0,0,0,0,0,0,0,0,0,0,0,0,0,0,0,0,0,0,0,0,0,0,0,0,0,0],"trees":[{"base_weights":[1.28983055E-8,1.1713442E0,-2.0025899E-1,2.3921251E0,6.992013E-1,6.076058E-1,-4.074584E-1,3.9698942E0,2.0885913E0,1.4836429E0,5.043548E-1,1.0081111E0,-5.0463356E-2,-2.0742898E-1,-6.393491E-1,1.845042E-1,4.1362605E0,3.092267E0,1.7004719E0,1.743943E0,3.9628693E-1,7.369405E-1,-2.6769338E-2,1.7974409E0,6.922858E-1,8.916881E-1,-1.5371187E-1,2.7222764E-2,-4.5917976E-1,-2.855395E-1,-6.8311876E-1,1.1612035E-1,-7.343936E-2,4.3368254E0,1.7282656E0,1.1166621E0,3.3393126E0,1.8315339E0,6.5725577E-1,1.9206303E0,3.494027E-1,1.9636129E-1,1.6320382E0,8.874284E-1,1.527665E-1,1.2356569E0,-1.350035E-1,1.9705307E0,3.3027238E-1,9.387385E-2,8.663792E-1,2.1834143E-1,1.695597E0,-2.9239693E-1,1.3392614E-1,1.405218E-1,-4.3290514E-1,3.8466743E-1,-4.9620318E-1,4.9424562E-1,-3.3093876E-1,-5.363359E-1,-7.6264477E-1,5.236765E-1,3.59172E-1,-6.0682397E-2,2.2404185E-1,1.420769E-1,-7.164873E-2,3.51707E-1,1.2227833E-1,1.118333E-1,2.04258E-1,1.9036792E-1,4.2005993E-2,2.1174657E-1,1.06747285E-1,1.9685695E-1,1.2071049E-2,6.377343E-2,-2.3616444E-2,2.3180597E-1,-3.566098E-2,1.249794E-2,1.0156099E-1,4.7145694E-2,-1.7667422E-2,-1.50030805E-2,1.5802078E-1,1.6484425E-3,-6.074792E-2,9.288876E-2,2.1696675E-1,1.812979E-1,-6.437634E-3,-2.7608788E-2,2.9927297E-2,1.00401126E-1,-2.25494E-2,1.17882304E-1,2.2475065E-3,5.4945797E-2,2.2987454E-1,-3.2926843E-2,6.8385795E-2,2.2800418E-2,-6.619541E-2,-1.1753875E-2,2.5286434E-2,-3.0497894E-2,-6.028185E-2,1.3740154E-1,2.0525116E-2,-4.182128E-2,-7.302077E-2,-3.957543E-2,1.1166622E-1,-1.7677525E-2,-5.4089345E-2,-6.439199E-2,-4.1499093E-2,-7.226928E-2,-8.814728E-2],"categories":[],"categories_nodes":[],"categories_segments":[],"categories_sizes":[],"default_left":[0,0,0,0,0,0,0,0,0,0,0,0,0,0,0,0,0,0,0,0,0,0,0,0,0,0,0,0,0,0,0,0,0,0,0,0,0,0,0,0,0,0,0,0,0,0,0,0,0,0,0,0,0,0,0,0,0,0,0,0,0,0,0,0,0,0,0,0,0,0,0,0,0,0,0,0,0,0,0,0,0,0,0,0,0,0,0,0,0,0,0,0,0,0,0,0,0,0,0,0,0,0,0,0,0,0,0,0,0,0,0,0,0,0,0,0,0,0,0,0,0,0,0],"id":0,"left_children":[1,3,5,7,9,11,13,15,17,19,21,23,25,27,29,31,33,35,37,39,41,43,45,47,49,51,53,55,57,59,61,-1,-1,63,65,67,69,71,73,75,77,79,81,83,85,87,89,91,93,95,97,99,101,103,105,107,109,111,113,115,117,119,121,-1,-1,-1,-1,-1,-1,-1,-1,-1,-1,-1,-1,-1,-1,-1,-1,-1,-1,-1,-1,-1,-1,-1,-1,-1,-1,-1,-1,-1,-1,-1,-1,-1,-1,-1,-1,-1,-1,-1,-1,-1,-1,-1,-1,-1,-1,-1,-1,-1,-1,-1,-1,-1,-1,-1,-1,-1,-1,-1,-1],"loss_changes":[3.2123586E3,1.1507778E3,1.9578777E3,2.5856348E2,2.1984387E2,6.293416E2,4.3163855E2,5.515503E1,1.7760461E2,8.0439514E1,1.4301932E2,3.6878918E2,8.810422E1,2.953236E2,6.655664E1,5.1470814E0,3.356006E1,5.956482E1,4.53844E1,5.6242615E1,1.3677591E1,7.064044E1,4.8469112E1,1.0691382E2,1.1053491E2,4.805564E1,3.2584175E1,1.3499544E2,7.5537384E1,1.7023716E1,4.435901E1,0E0,0E0,3.336609E1,1.1164373E1,9.891035E0,3.887805E1,4.319513E1,1.0905039E1,3.212964E1,9.833096E0,9.6778555E0,1.1404097E1,6.241797E1,1.7524323E1,1.3611664E1,2.337857E1,7.653076E1,2.697396E1,1.835115E1,1.2381055E2,9.348095E0,2.6823524E1,2.005038E1,2.0073992E1,6.0263847E1,1.0937614E1,1.7810757E1,4.1866455E1,1.5178732E1,1.4490723E1,1.7370605E1,1.1160645E1,0E0,0E0,0E0,0E0,0E0,0E0,0E0,0E0,0E0,0E0,0E0,0E0,0E0,0E0,0E0,0E0,0E0,0E0,0E0,0E0,0E0,0E0,0E0,0E0,0E0,0E0,0E0,0E0,0E0,0E0,0E0,0E0,0E0,0E0,0E0,0E0,0E0,0E0,0E0,0E0,0E0,0E0,0E0,0E0,0E0,0E0,0E0,0E0,0E0,0E0,0E0,0E0,0E0,0E0,0E0,0E0,0E0,0E0,0E0,0E0],"parents":[2147483647,0,0,1,1,2,2,3,3,4,4,5,5,6,6,7,7,8,8,9,9,10,10,11,11,12,12,13,13,14,14,15,15,16,16,17,17,18,18,19,19,20,20,21,21,22,22,23,23,24,24,25,25,26,26,27,27,28,28,29,29,30,30,33,33,34,34,35,35,36,36,37,37,38,38,39,39,40,40,41,41,42,42,43,43,44,44,45,45,46,46,47,47,48,48,49,49,50,50,51,51,52,52,53,53,54,54,55,55,56,56,57,57,58,58,59,59,60,60,61,61,62,62],"right_children":[2,4,6,8,10,12,14,16,18,20,22,24,26,28,30,32,34,36,38,40,42,44,46,48,50,52,54,56,58,60,62,-1,-1,64,66,68,70,72,74,76,78,80,82,84,86,88,90,92,94,96,98,100,102,104,106,108,110,112,114,116,118,120,122,-1,-1,-1,-1,-1,-1,-1,-1,-1,-1,-1,-1,-1,-1,-1,-1,-1,-1,-1,-1,-1,-1,-1,-1,-1,-1,-1,-1,-1,-1,-1,-1,-1,-1,-1,-1,-1,-1,-1,-1,-1,-1,-1,-1,-1,-1,-1,-1,-1,-1,-1,-1,-1,-1,-1,-1,-1,-1,-1,-1],"split_conditions":[3.1547216E-1,3.7691003E-1,3.5281038E-1,7.685728E-2,1.3259749E-1,5.585066E-1,5.478105E-1,2E0,1.5008518E-1,5.094732E-1,6.565716E-1,1.5357058E-1,7.685728E-2,6.119016E-1,4.0188727E-1,5.235975E5,5.3318393E-1,-2.0675E4,5.632209E-1,7.060292E-1,1E0,5.094732E-1,2.798534E-1,5.094732E-1,-1.9974E4,-1.5156E4,-1.4293E4,5.094732E-1,2.428168E-1,1.3816383E-1,5.7668835E-1,1.1612035E-1,-7.343936E-2,1.7352743E-1,7.47E-2,8.25E-2,5.512461E-1,1.5003E4,9.771E-1,6.795E5,1.77E-2,1.3E1,1.5E1,-1.9974E4,-1.5889E4,1.1E-3,5.754638E-1,1E0,3.433336E-2,2.9628E5,5.4538554E-1,5.9892625E-1,3.27024E5,1E0,5.396134E-1,-1.7805E4,6.860193E-1,1E1,5.3318393E-1,-1.44E3,6.2233317E-1,-1.6867E4,5.754638E-1,5.236765E-1,3.59172E-1,-6.0682397E-2,2.2404185E-1,1.420769E-1,-7.164873E-2,3.51707E-1,1.2227833E-1,1.118333E-1,2.04258E-1,1.9036792E-1,4.2005993E-2,2.1174657E-1,1.06747285E-1,1.9685695E-1,1.2071049E-2,6.377343E-2,-2.3616444E-2,2.3180597E-1,-3.566098E-2,1.249794E-2,1.0156099E-1,4.7145694E-2,-1.7667422E-2,-1.50030805E-2,1.5802078E-1,1.6484425E-3,-6.074792E-2,9.288876E-2,2.1696675E-1,1.812979E-1,-6.437634E-3,-2.7608788E-2,2.9927297E-2,1.00401126E-1,-2.25494E-2,1.17882304E-1,2.2475065E-3,5.4945797E-2,2.2987454E-1,-3.2926843E-2,6.8385795E-2,2.2800418E-2,-6.619541E-2,-1.1753875E-2,2.5286434E-2,-3.0497894E-2,-6.028185E-2,1.3740154E-1,2.0525116E-2,-4.182128E-2,-7.302077E-2,-3.957543E-2,1.1166622E-1,-1.7677525E-2,-5.4089345E-2,-6.439199E-2,-4.1499093E-2,-7.226928E-2,-8.814728E-2],"split_indices":[29,28,28,28,29,29,29,19,29,27,28,28,28,28,27,2,27,6,27,28,74,27,27,27,6,6,6,27,27,27,28,0,0,29,59,31,27,3,32,4,31,20,20,6,6,71,27,12,28,2,27,29,2,24,27,6,27,20,27,7,28,6,27,0,0,0,0,0,0,0,0,0,0,0,0,0,0,0,0,0,0,0,0,0,0,0,0,0,0,0,0,0,0,0,0,0,0,0,0,0,0,0,0,0,0,0,0,0,0,0,0,0,0,0,0,0,0,0,0,0,0,0,0],"split_type":[0,0,0,0,0,0,0,0,0,0,0,0,0,0,0,0,0,0,0,0,0,0,0,0,0,0,0,0,0,0,0,0,0,0,0,0,0,0,0,0,0,0,0,0,0,0,0,0,0,0,0,0,0,0,0,0,0,0,0,0,0,0,0,0,0,0,0,0,0,0,0,0,0,0,0,0,0,0,0,0,0,0,0,0,0,0,0,0,0,0,0,0,0,0,0,0,0,0,0,0,0,0,0,0,0,0,0,0,0,0,0,0,0,0,0,0,0,0,0,0,0,0,0],"sum_hessian":[1.369254E4,1.9984521E3,1.1694088E4,5.5621814E2,1.442234E3,2.3866545E3,9.307434E3,8.779267E1,4.6842548E2,2.8564157E2,1.1565924E3,1.4833474E3,9.033072E2,4.998023E3,4.3094106E3,3.7848067E0,8.4007866E1,1.2868343E2,3.3974207E2,2.2998267E2,5.565892E1,8.040859E2,3.525065E2,4.2256253E2,1.0607848E3,8.846058E1,8.148466E2,2.5873235E3,2.4106992E3,4.75253E2,3.8341575E3,1.7068737E0,2.077933E0,7.680931E1,7.198554E0,1.4916591E1,1.1376684E2,3.011519E2,3.8590187E1,2.0378586E2,2.6196798E1,4.890564E1,6.7532825E0,6.389644E2,1.6512146E2,2.701313E1,3.2549338E2,3.7766434E2,4.4898197E1,2.3940758E2,8.2137726E2,4.883143E1,3.962915E1,5.497617E2,2.650849E2,2.0766714E3,5.1065204E2,1.0092818E2,2.309771E3,2.5603104E1,4.4964987E2,1.3500627E3,2.4840947E3,3.205954E1,4.474977E1,1.2616022E0,5.9369516E0,1.2987082E1,1.9295093E0,1.0434193E2,9.424911E0,7.020445E1,2.3094742E2,5.0464087E0,3.3543777E1,1.6437935E2,3.9406517E1,2.3005688E0,2.389623E1,2.3970442E1,2.4935196E1,4.897985E0,1.8552973E0,9.2245384E1,5.4671906E2,8.371102E1,8.1410446E1,5.49168E0,2.152145E1,2.4719983E2,7.829355E1,6.152166E1,3.1614267E2,8.682792E0,3.6215405E1,8.534368E1,1.5406389E2,7.295029E2,9.187433E1,7.4211893E0,4.1410236E1,1.4322896E1,2.5306257E1,5.303924E2,1.9369305E1,2.377007E2,2.738419E1,6.2983636E2,1.4468351E3,2.9291434E2,2.177377E2,1.4471319E1,8.6456856E1,1.7344805E3,5.752906E2,1.0686513E1,1.4916591E1,2.6033533E2,1.8931454E2,7.1332477E2,6.3673804E2,1.8643512E3,6.197435E2],"tree_param":{"num_deleted":"0","num_feature":"104","num_nodes":"123","size_leaf_vector":"1"}},{"base_weights":[-3.133339E-3,6.780464E-1,-2.671953E-1,1.6169566E0,3.972543E-1,5.597539E-1,-4.1037053E-1,2.1236446E0,1.2612245E0,6.9913703E-1,-9.534731E-2,8.654198E-1,2.2844914E-1,-2.2674432E-1,-6.2840635E-1,2.7360313E0,1.8057594E0,1.9129143E0,1.0482332E0,1.5514843E0,5.272087E-1,6.509428E-1,-1.8814088E-1,1.1505878E0,3.9211184E-1,3.6862507E-1,-4.218274E-1,-2.8006123E-2,-4.463981E-1,-3.0758482E-1,-6.6859937E-1,2.8604636E0,8.274851E-1,1.9554524E0,5.853531E-1,7.446992E-1,2.1817632E0,5.5995965E-1,1.1898639E0,7.5490487E-1,1.7755821E0,6.288313E-1,-2.085976E-1,-1.1953036E-1,9.9532914E-1,-3.5993415E-1,4.5050025E-2,1.3092201E0,4.5312232E-1,1.0293088E0,2.1167895E-1,1.2067541E0,2.9774106E-1,4.7397068E-1,-5.034254E-1,7.008564E-2,-4.3314195E-1,3.9623997E-1,-4.8205036E-1,-2.0774874E-1,-6.1666435E-1,-5.2736634E-1,-7.3461E-1,3.029275E-1,1.15405016E-1,-5.2523237E-2,1.4882222E-1,2.6487318E-1,1.7048192E-1,7.851956E-2,-8.230819E-2,1.810856E-2,1.3195942E-1,8.211827E-2,2.4158747E-1,7.106575E-2,-8.907597E-3,1.5358825E-1,8.5405216E-2,2.5754735E-1,5.377502E-2,1.9156043E-1,6.0425412E-2,-5.8990424E-3,7.353912E-2,4.8384327E-3,-5.23066E-2,9.948223E-2,-3.3991378E-2,3.6228284E-2,1.4758873E-1,-5.5614986E-2,-2.2035943E-2,1.4295659E-2,-5.4150265E-2,7.239154E-2,1.5306903E-1,1.3454086E-1,1.8390095E-2,3.6052385E-1,8.9540295E-2,3.2529887E-2,-4.0596236E-2,-1.2092899E-2,1.468461E-1,4.537091E-2,-5.9250477E-3,-6.6306256E-2,1.2021929E-1,-2.0877354E-2,-7.195169E-2,1.0131978E-1,4.0180287E-3,-5.7248212E-2,-2.4270853E-2,-3.9755017E-2,6.22507E-2,-4.024915E-2,-7.019255E-2,-3.0718375E-2,2.0166067E-2,3.6223054E-2,-6.7227535E-2,-4.772507E-2,-7.837364E-2,-8.440786E-2,-6.859765E-2],"categories":[],"categories_nodes":[],"categories_segments":[],"categories_sizes":[],"default_left":[0,0,0,0,0,0,0,0,0,0,0,0,0,0,0,0,0,0,0,0,0,0,0,0,0,0,0,0,0,0,0,0,0,0,0,0,0,0,0,0,0,0,0,0,0,0,0,0,0,0,0,0,0,0,0,0,0,0,0,0,0,0,0,0,0,0,0,0,0,0,0,0,0,0,0,0,0,0,0,0,0,0,0,0,0,0,0,0,0,0,0,0,0,0,0,0,0,0,0,0,0,0,0,0,0,0,0,0,0,0,0,0,0,0,0,0,0,0,0,0,0,0,0,0,0,0,0],"id":1,"left_children":[1,3,5,7,9,11,13,15,17,19,21,23,25,27,29,31,33,35,37,39,41,43,45,47,49,51,53,55,57,59,61,63,65,67,69,71,73,75,77,79,81,83,85,87,89,91,93,95,97,99,101,103,105,107,109,111,113,115,117,119,121,123,125,-1,-1,-1,-1,-1,-1,-1,-1,-1,-1,-1,-1,-1,-1,-1,-1,-1,-1,-1,-1,-1,-1,-1,-1,-1,-1,-1,-1,-1,-1,-1,-1,-1,-1,-1,-1,-1,-1,-1,-1,-1,-1,-1,-1,-1,-1,-1,-1,-1,-1,-1,-1,-1,-1,-1,-1,-1,-1,-1,-1,-1,-1,-1,-1],"loss_changes":[2.4680957E3,1.00992786E3,1.170967E3,1.5631958E2,4.3905902E2,1.4762924E2,3.3734424E2,6.560657E1,7.027374E1,2.6742352E2,7.7862E1,1.0197876E2,6.413188E1,1.998032E2,4.9478516E1,2.6581055E1,4.2974426E1,3.8279724E1,2.6626984E1,5.3415405E1,1.1414227E2,3.3119144E1,4.0045128E1,5.1745544E1,3.276081E1,3.3975204E1,9.370483E0,9.5571594E1,6.5507324E1,1.3166E1,3.1526855E1,2.9350708E1,8.707613E0,3.2788513E1,8.474683E0,7.954776E0,3.0750153E1,8.927544E0,3.413327E1,2.5927776E1,3.798401E1,9.825421E1,1.5038541E1,9.992368E0,2.56455E1,1.5637375E1,2.4469706E1,4.8781433E1,2.117672E1,1.8516708E1,1.5907829E1,1.5722588E1,2.9770016E1,9.859684E0,7.1711407E0,5.4572678E1,1.2299728E1,1.619753E1,3.6214386E1,1.3380033E1,5.941864E0,1.3680511E1,1.18272705E1,0E0,0E0,0E0,0E0,0E0,0E0,0E0,0E0,0E0,0E0,0E0,0E0,0E0,0E0,0E0,0E0,0E0,0E0,0E0,0E0,0E0,0E0,0E0,0E0,0E0,0E0,0E0,0E0,0E0,0E0,0E0,0E0,0E0,0E0,0E0,0E0,0E0,0E0,0E0,0E0,0E0,0E0,0E0,0E0,0E0,0E0,0E0,0E0,0E0,0E0,0E0,0E0,0E0,0E0,0E0,0E0,0E0,0E0,0E0,0E0,0E0,0E0,0E0,0E0],"parents":[2147483647,0,0,1,1,2,2,3,3,4,4,5,5,6,6,7,7,8,8,9,9,10,10,11,11,12,12,13,13,14,14,15,15,16,16,17,17,18,18,19,19,20,20,21,21,22,22,23,23,24,24,25,25,26,26,27,27,28,28,29,29,30,30,31,31,32,32,33,33,34,34,35,35,36,36,37,37,38,38,39,39,40,40,41,41,42,42,43,43,44,44,45,45,46,46,47,47,48,48,49,49,50,50,51,51,52,52,53,53,54,54,55,55,56,56,57,57,58,58,59,59,60,60,61,61,62,62],"right_children":[2,4,6,8,10,12,14,16,18,20,22,24,26,28,30,32,34,36,38,40,42,44,46,48,50,52,54,56,58,60,62,64,66,68,70,72,74,76,78,80,82,84,86,88,90,92,94,96,98,100,102,104,106,108,110,112,114,116,118,120,122,124,126,-1,-1,-1,-1,-1,-1,-1,-1,-1,-1,-1,-1,-1,-1,-1,-1,-1,-1,-1,-1,-1,-1,-1,-1,-1,-1,-1,-1,-1,-1,-1,-1,-1,-1,-1,-1,-1,-1,-1,-1,-1,-1,-1,-1,-1,-1,-1,-1,-1,-1,-1,-1,-1,-1,-1,-1,-1,-1,-1,-1,-1,-1,-1,-1],"split_conditions":[4.055504E-1,3.4905526E-1,3.1547216E-1,2.0468087E-1,5.585066E-1,2.2258076E-1,5.478105E-1,1.6640554E-1,1.5008518E-1,1.06114976E-1,9.5289834E-2,6.326222E-1,5.754638E-1,6.20893E-1,4.0188727E-1,5.632209E-1,2.34E5,1.37025E4,1.5003E4,-1.9263E4,5.3318393E-1,-1.9389E4,-1.5526E4,6.795E5,4.449774E-1,2.1040356E-1,3.36E-2,5.094732E-1,2.3563889E-1,-3.6E2,5.7668835E-1,9.871E-1,-4.133E3,5.5594124E-2,1.8768208E-1,-7.43E2,-4.33E3,2.8663E-2,4.545E5,1.02210855E-2,8.55E-2,-2.1337E4,6.799197E-1,5.9892625E-1,-1.679E3,-4.075E3,5.094732E-1,1E0,1.0211879E-1,8.1E4,6.6738844E-1,1.24785E4,6.565716E-1,8.4E-3,6.089479E-1,1.5086418E-1,2.9286E4,1.4778E4,5.094732E-1,-5.66E2,3.8E-3,6.29768E-1,1E0,3.029275E-1,1.15405016E-1,-5.2523237E-2,1.4882222E-1,2.6487318E-1,1.7048192E-1,7.851956E-2,-8.230819E-2,1.810856E-2,1.3195942E-1,8.211827E-2,2.4158747E-1,7.106575E-2,-8.907597E-3,1.5358825E-1,8.5405216E-2,2.5754735E-1,5.377502E-2,1.9156043E-1,6.0425412E-2,-5.8990424E-3,7.353912E-2,4.8384327E-3,-5.23066E-2,9.948223E-2,-3.3991378E-2,3.6228284E-2,1.4758873E-1,-5.5614986E-2,-2.2035943E-2,1.4295659E-2,-5.4150265E-2,7.239154E-2,1.5306903E-1,1.3454086E-1,1.8390095E-2,3.6052385E-1,8.9540295E-2,3.2529887E-2,-4.0596236E-2,-1.2092899E-2,1.468461E-1,4.537091E-2,-5.9250477E-3,-6.6306256E-2,1.2021929E-1,-2.0877354E-2,-7.195169E-2,1.0131978E-1,4.0180287E-3,-5.7248212E-2,-2.4270853E-2,-3.9755017E-2,6.22507E-2,-4.024915E-2,-7.019255E-2,-3.0718375E-2,2.0166067E-2,3.6223054E-2,-6.7227535E-2,-4.772507E-2,-7.837364E-2,-8.440786E-2,-6.859765E-2],"split_indices":[28,29,29,28,29,29,29,29,29,28,28,28,27,28,27,27,1,3,3,6,27,6,6,4,27,27,69,27,27,77,28,32,9,28,28,7,9,5,4,28,31,6,27,29,7,9,27,79,29,1,27,3,28,59,28,27,3,3,27,7,45,27,79,0,0,0,0,0,0,0,0,0,0,0,0,0,0,0,0,0,0,0,0,0,0,0,0,0,0,0,0,0,0,0,0,0,0,0,0,0,0,0,0,0,0,0,0,0,0,0,0,0,0,0,0,0,0,0,0,0,0,0,0,0,0,0,0],"split_type":[0,0,0,0,0,0,0,0,0,0,0,0,0,0,0,0,0,0,0,0,0,0,0,0,0,0,0,0,0,0,0,0,0,0,0,0,0,0,0,0,0,0,0,0,0,0,0,0,0,0,0,0,0,0,0,0,0,0,0,0,0,0,0,0,0,0,0,0,0,0,0,0,0,0,0,0,0,0,0,0,0,0,0,0,0,0,0,0,0,0,0,0,0,0,0,0,0,0,0,0,0,0,0,0,0,0,0,0,0,0,0,0,0,0,0,0,0,0,0,0,0,0,0,0,0,0,0],"sum_hessian":[1.3719266E4,3.8321653E3,9.887101E3,8.811213E2,2.951044E3,1.4587521E3,8.428349E3,3.6139603E2,5.197253E2,1.8294663E3,1.1215775E3,7.578958E2,7.0085626E2,4.576302E3,3.8520466E3,1.20894005E2,2.4050201E2,1.2605466E2,3.936706E2,3.0573566E2,1.5237307E3,1.2336915E2,9.982084E2,4.7205298E2,2.858428E2,5.769253E2,1.23930954E2,2.4031284E3,2.173173E3,4.298256E2,3.4222212E3,1.13026215E2,7.867794E0,2.1368898E2,2.6813038E1,2.4287853E1,1.017668E2,8.9628685E1,3.0404193E2,6.808584E1,2.3764983E2,1.3389525E3,1.8477814E2,3.8311115E1,8.505804E1,5.7445795E2,4.2375043E2,3.8386844E2,8.818456E1,6.2040993E1,2.2380182E2,4.3738537E1,5.3318677E2,9.944944E0,1.1398601E2,1.9353638E3,4.6776456E2,8.780454E1,2.0853687E3,3.261483E2,1.0367731E2,1.0928987E3,2.3293225E3,1.02145935E2,1.0880275E1,2.6492023E0,5.2185917E0,5.4199387E1,1.594896E2,2.3868803E1,2.944234E0,1.2928269E1,1.1359584E1,1.5601803E1,8.6165E1,7.266244E1,1.6966248E1,1.4798521E2,1.560567E2,6.098394E0,6.1987446E1,2.1170668E2,2.594314E1,1.7966956E2,1.159283E3,1.0214881E2,8.2629326E1,5.745477E0,3.2565636E1,3.746229E1,4.759575E1,2.3753873E2,3.369192E2,3.6378433E2,5.9966106E1,1.06548676E2,2.7731976E2,1.9513418E1,6.867114E1,1.784728E0,6.0256268E1,1.8942833E2,3.437349E1,7.2905025E0,3.6448036E1,3.7088E2,1.6230675E2,3.9175808E0,6.0273633E0,4.905843E1,6.492758E1,5.8472153E1,1.8768916E3,2.6896017E2,1.9880438E2,1.930871E1,6.8495834E1,1.53337E3,5.5199866E2,2.6261545E2,6.353284E1,5.2768903E0,9.840041E1,9.165848E2,1.7631393E2,7.1148755E2,1.6178348E3],"tree_param":{"num_deleted":"0","num_feature":"104","num_nodes":"127","size_leaf_vector":"1"}},{"base_weights":[-5.025164E-3,5.734377E-1,-2.4730168E-1,8.462305E-1,-5.2526783E-2,3.0515778E-1,-4.2732394E-1,1.5150454E0,6.742643E-1,1.9658348E-1,-2.4972756E-1,7.226169E-1,8.765614E-2,-2.6681003E-1,-6.127719E-1,9.308598E-1,1.6377616E0,1.0985624E0,4.450181E-1,4.3049857E-2,5.598724E-1,-4.3728632E-1,-3.5868995E-2,9.6125865E-1,3.7087488E-1,2.1248938E-1,-4.064369E-1,1.9008504E-3,-3.916521E-1,-3.0691227E-1,-6.514333E-1,1.0588356E0,-1.6522712E-1,1.9490429E0,1.3783013E0,6.375692E-1,1.2592542E0,5.2191865E-1,-2.1611091E-1,2.2849502E-1,-2.1300018E-1,1.2960542E0,3.9549488E-1,-7.294943E-1,-3.651404E-1,-4.521126E-1,9.513867E-2,1.502639E0,8.250881E-1,8.938585E-1,2.1279535E-1,3.4424686E-1,-1.3496603E-1,-2.6915544E-1,-7.146711E-1,9.928891E-2,-4.4964918E-1,-2.9891157E-1,-6.3001084E-1,3.7034756E-1,-3.486898E-1,-5.110128E-1,-7.1792716E-1,6.643759E-2,1.4189515E-1,7.447528E-2,-8.303853E-2,2.2261083E-1,1.5680069E-1,1.460952E-1,3.3625156E-2,1.9025747E-1,4.721022E-2,1.7412933E-2,1.3342358E-1,-1.2462246E-2,5.9311915E-2,-2.9474905E-2,6.1051782E-2,7.36231E-3,7.586267E-2,-3.3134278E-2,2.0541968E-2,8.620127E-3,1.9257508E-1,1.3600118E-1,2.7093887E-2,8.763409E-2,-7.787087E-2,-6.296741E-2,-2.5893942E-2,-6.78018E-2,-1.4561951E-2,-2.1902813E-2,3.046614E-2,6.959225E-2,1.8286888E-1,9.5682524E-2,2.1321952E-2,1.733052E-1,6.2486667E-2,3.1076772E-2,-4.508951E-2,7.75598E-2,2.6163349E-2,7.66003E-2,-2.1044416E-2,-3.3251032E-2,2.6893098E-2,-8.132081E-2,-3.3628087E-2,-3.0449992E-2,1.8750353E-2,4.0581185E-2,-5.625695E-2,-2.2365985E-2,-5.8294743E-2,-1.1982431E-2,-6.5504506E-2,-5.4647412E-2,9.5924236E-2,-8.984136E-2,-2.919424E-2,-3.8482036E-2,-5.9470594E-2,-6.739603E-2,-8.511507E-2],"categories":[],"categories_nodes":[],"categories_segments":[],"categories_sizes":[],"default_left":[0,0,0,0,0,0,0,0,0,0,0,0,0,0,0,0,0,0,0,0,0,0,0,0,0,0,0,0,0,0,0,0,0,0,0,0,0,0,0,0,0,0,0,0,0,0,0,0,0,0,0,0,0,0,0,0,0,0,0,0,0,0,0,0,0,0,0,0,0,0,0,0,0,0,0,0,0,0,0,0,0,0,0,0,0,0,0,0,0,0,0,0,0,0,0,0,0,0,0,0,0,0,0,0,0,0,0,0,0,0,0,0,0,0,0,0,0,0,0,0,0,0,0,0,0,0,0],"id":2,"left_children":[1,3,5,7,9,11,13,15,17,19,21,23,25,27,29,31,33,35,37,39,41,43,45,47,49,51,53,55,57,59,61,63,65,67,69,71,73,75,77,79,81,83,85,87,89,91,93,95,97,99,101,103,105,107,109,111,113,115,117,119,121,123,125,-1,-1,-1,-1,-1,-1,-1,-1,-1,-1,-1,-1,-1,-1,-1,-1,-1,-1,-1,-1,-1,-1,-1,-1,-1,-1,-1,-1,-1,-1,-1,-1,-1,-1,-1,-1,-1,-1,-1,-1,-1,-1,-1,-1,-1,-1,-1,-1,-1,-1,-1,-1,-1,-1,-1,-1,-1,-1,-1,-1,-1,-1,-1,-1],"loss_changes":[1.9229803E3,6.9167944E2,9.619291E2,3.2343713E2,6.0488136E1,2.1579562E2,2.1696704E2,3.9781982E1,2.1796277E2,3.0328142E1,2.7546501E1,6.79884E1,9.656156E1,1.3122766E2,3.9810303E1,1.4530746E1,3.5664917E1,5.7504333E1,7.432828E1,1.8263048E1,1.9039848E1,7.449379E0,1.7610367E1,3.4475067E1,2.7153328E1,5.7240284E1,1.3171543E1,5.4657417E1,5.8853577E1,1.0925758E1,2.7671875E1,1.209433E1,7.618433E0,1.9043945E1,2.2108002E1,4.211123E1,4.7173218E1,6.0283752E1,1.0113226E1,1.824916E1,8.072109E0,2.1967579E1,1.5672359E1,6.3306046E0,8.13937E0,5.2530317E0,1.6250364E1,2.4016998E1,3.1177246E1,1.617582E1,1.6739788E1,3.208661E1,2.3568962E1,7.5929766E0,3.3325157E0,3.6474422E1,2.1528988E1,4.1008392E1,9.465027E0,1.2756297E1,1.096582E1,9.999893E0,1.1348999E1,0E0,0E0,0E0,0E0,0E0,0E0,0E0,0E0,0E0,0E0,0E0,0E0,0E0,0E0,0E0,0E0,0E0,0E0,0E0,0E0,0E0,0E0,0E0,0E0,0E0,0E0,0E0,0E0,0E0,0E0,0E0,0E0,0E0,0E0,0E0,0E0,0E0,0E0,0E0,0E0,0E0,0E0,0E0,0E0,0E0,0E0,0E0,0E0,0E0,0E0,0E0,0E0,0E0,0E0,0E0,0E0,0E0,0E0,0E0,0E0,0E0,0E0,0E0,0E0],"parents":[2147483647,0,0,1,1,2,2,3,3,4,4,5,5,6,6,7,7,8,8,9,9,10,10,11,11,12,12,13,13,14,14,15,15,16,16,17,17,18,18,19,19,20,20,21,21,22,22,23,23,24,24,25,25,26,26,27,27,28,28,29,29,30,30,31,31,32,32,33,33,34,34,35,35,36,36,37,37,38,38,39,39,40,40,41,41,42,42,43,43,44,44,45,45,46,46,47,47,48,48,49,49,50,50,51,51,52,52,53,53,54,54,55,55,56,56,57,57,58,58,59,59,60,60,61,61,62,62],"right_children":[2,4,6,8,10,12,14,16,18,20,22,24,26,28,30,32,34,36,38,40,42,44,46,48,50,52,54,56,58,60,62,64,66,68,70,72,74,76,78,80,82,84,86,88,90,92,94,96,98,100,102,104,106,108,110,112,114,116,118,120,122,124,126,-1,-1,-1,-1,-1,-1,-1,-1,-1,-1,-1,-1,-1,-1,-1,-1,-1,-1,-1,-1,-1,-1,-1,-1,-1,-1,-1,-1,-1,-1,-1,-1,-1,-1,-1,-1,-1,-1,-1,-1,-1,-1,-1,-1,-1,-1,-1,-1,-1,-1,-1,-1,-1,-1,-1,-1,-1,-1,-1,-1,-1,-1,-1,-1],"split_conditions":[4.055504E-1,5.3707E-1,4.0314168E-1,2.4719094E-1,2.4993299E-1,2.2258076E-1,5.6737924E-1,-1.8806E4,1.8768208E-1,-1.3295E4,-1.5943E4,6.20893E-1,5.3318393E-1,5.573638E-1,4.0188727E-1,9.63E5,2.0468087E-1,1E0,5.695014E-1,6.894792E-1,5.5594124E-2,-4.508E3,-2.996E3,8.9043885E-2,4.449774E-1,6.635829E-1,6.7942166E-1,5.094732E-1,7.0144266E-1,1.3816383E-1,5.7668835E-1,1.35E5,-6.25E2,-2.859E3,2.708E-1,2.2967095E-2,-4.991E3,-2.1743E4,1E0,-1.9E3,-1.5466E4,3.15E5,5.549468E-1,9.677E-1,-2.787E3,-6.11E2,3.31632E5,-1.6456E4,6.795E5,-1.4054E4,6.929495E-1,3.0022234E-1,2.428168E-1,1.2677355E6,-1.463E3,-2.934E3,3.7E-2,5.2712893E-1,2.798534E-1,-1.44E3,2E0,6.594055E-1,5.754638E-1,6.643759E-2,1.4189515E-1,7.447528E-2,-8.303853E-2,2.2261083E-1,1.5680069E-1,1.460952E-1,3.3625156E-2,1.9025747E-1,4.721022E-2,1.7412933E-2,1.3342358E-1,-1.2462246E-2,5.9311915E-2,-2.9474905E-2,6.1051782E-2,7.36231E-3,7.586267E-2,-3.3134278E-2,2.0541968E-2,8.620127E-3,1.9257508E-1,1.3600118E-1,2.7093887E-2,8.763409E-2,-7.787087E-2,-6.296741E-2,-2.5893942E-2,-6.78018E-2,-1.4561951E-2,-2.1902813E-2,3.046614E-2,6.959225E-2,1.8286888E-1,9.5682524E-2,2.1321952E-2,1.733052E-1,6.2486667E-2,3.1076772E-2,-4.508951E-2,7.75598E-2,2.6163349E-2,7.66003E-2,-2.1044416E-2,-3.3251032E-2,2.6893098E-2,-8.132081E-2,-3.3628087E-2,-3.0449992E-2,1.8750353E-2,4.0581185E-2,-5.625695E-2,-2.2365985E-2,-5.8294743E-2,-1.1982431E-2,-6.5504506E-2,-5.4647412E-2,9.5924236E-2,-8.984136E-2,-2.919424E-2,-3.8482036E-2,-5.9470594E-2,-6.739603E-2,-8.511507E-2],"split_indices":[28,29,29,29,28,29,29,6,28,6,6,28,27,28,27,2,28,79,27,29,28,9,7,29,27,28,28,27,28,27,28,1,77,8,66,28,7,6,76,9,6,2,29,46,7,77,2,6,4,6,27,27,27,2,8,7,72,27,27,7,19,29,27,0,0,0,0,0,0,0,0,0,0,0,0,0,0,0,0,0,0,0,0,0,0,0,0,0,0,0,0,0,0,0,0,0,0,0,0,0,0,0,0,0,0,0,0,0,0,0,0,0,0,0,0,0,0,0,0,0,0,0,0,0,0,0,0],"split_type":[0,0,0,0,0,0,0,0,0,0,0,0,0,0,0,0,0,0,0,0,0,0,0,0,0,0,0,0,0,0,0,0,0,0,0,0,0,0,0,0,0,0,0,0,0,0,0,0,0,0,0,0,0,0,0,0,0,0,0,0,0,0,0,0,0,0,0,0,0,0,0,0,0,0,0,0,0,0,0,0,0,0,0,0,0,0,0,0,0,0,0,0,0,0,0,0,0,0,0,0,0,0,0,0,0,0,0,0,0,0,0,0,0,0,0,0,0,0,0,0,0,0,0,0,0,0,0],"sum_hessian":[1.371906E4,4.049367E3,9.669693E3,2.820049E3,1.2293179E3,2.3763525E3,7.293341E3,5.751913E2,2.244858E3,5.4317065E2,6.8614716E2,8.132085E2,1.5631439E3,3.9107998E3,3.382541E3,1.0134205E2,4.738492E2,7.8610724E2,1.4587506E3,3.8259598E2,1.6057468E2,3.649943E2,3.211529E2,4.834653E2,3.297432E2,1.2483234E3,3.1482056E2,1.2408884E3,2.6699111E3,3.8058405E2,3.0019568E3,9.077716E1,1.0564888E1,2.124525E2,2.6139673E2,2.0447542E2,5.8163184E2,1.3069415E3,1.5180899E2,2.2195319E2,1.6064278E2,2.8052778E1,1.3252191E2,7.0468575E1,2.945257E2,7.629473E1,2.4485817E2,9.51475E1,3.8831778E2,7.5455376E1,2.5428783E2,9.051091E2,3.4321432E2,2.1910759E2,9.571298E1,1.021382E3,2.1950647E2,1.9236948E3,7.462163E2,2.165574E1,3.589283E2,9.6749774E2,2.0344591E3,4.468045E1,4.6096714E1,4.410868E0,6.15402E0,1.20204834E2,9.2247665E1,2.4181503E2,1.9581692E1,2.243792E1,1.820375E2,3.7807568E1,5.438242E2,1.2957512E2,1.1773665E3,1.3920929E2,1.2599703E1,1.7265335E2,4.9299835E1,1.2538733E2,3.5255455E1,9.991922E0,1.8060856E1,1.4021967E1,1.1849994E2,1.5956901E0,6.887288E1,8.295813E1,2.1156758E2,4.3223793E1,3.307094E1,9.794705E1,1.4691112E2,2.8288961E1,6.685854E1,3.190595E2,6.9258286E1,1.6994287E1,5.846109E1,2.2204225E2,3.2245575E1,1.4413664E2,7.609724E2,2.5822855E1,3.1739148E2,1.9636894E2,2.2738642E1,7.5026215E1,2.0686771E1,1.8269087E2,8.3869116E2,2.52936E1,1.9421286E2,1.5221958E3,4.014991E2,3.5173843E1,7.110425E2,8.497864E0,1.3157876E1,3.219704E1,3.2673126E2,3.8802774E2,5.7947E2,1.534197E3,5.0026215E2],"tree_param":{"num_deleted":"0","num_feature":"104","num_nodes":"127","size_leaf_vector":"1"}},{"base_weights":[-6.2344014E-3,4.3641475E-1,-2.5935364E-1,6.613258E-1,-1.0204329E-1,3.8488844E-1,-3.861025E-1,1.1027565E0,5.049612E-1,1.738819E-1,-2.680394E-1,4.9191913E-1,-8.5491486E-2,-2.3830406E-1,-5.976887E-1,1.8180861E0,1.0270492E0,9.656959E-1,3.6559004E-1,7.1246946E-1,8.638386E-2,-5.0742674E-1,-1.11227006E-1,8.990834E-1,3.6998016E-1,2.3581333E-1,-3.3669108E-1,-1.2031079E-1,-4.801287E-1,-3.0924144E-1,-6.3677865E-1,2.1722734E0,1.0981685E0,1.4587926E0,8.991839E-1,1.0343468E0,-9.7176075E-2,4.4045898E-1,-1.2363157E-1,3.2511827E-1,1.2977396E0,-4.437085E-1,1.7913538E-1,-6.676668E-1,-4.114729E-1,-4.0365413E-1,5.1841944E-2,9.9680907E-1,2.2548351E-2,-5.396291E-2,4.664284E-1,5.3350675E-1,-9.281328E-2,-1.3067132E-1,-5.74218E-1,-3.5981853E-2,-4.6583486E-1,-5.1117945E-1,8.609427E-2,-6.0202515E-1,-2.105404E-1,-5.693083E-1,-7.648725E-1,2.2849293E-1,-4.6566096E-3,1.2627332E-1,-5.3396743E-2,7.7386014E-2,1.6500972E-1,1.1470939E-1,6.642248E-2,7.4612856E-2,1.2172892E-1,-6.9732144E-2,2.8189579E-2,1.6733287E-4,5.4450966E-2,6.740241E-3,-4.2823967E-2,-4.546116E-2,8.6796544E-2,2.3689151E-1,7.730626E-2,-5.8984585E-2,9.463326E-3,7.261493E-2,8.438184E-3,4.2968053E-2,-6.7944214E-2,-1.6640238E-2,-5.3349085E-2,-4.228053E-2,1.0903567E-1,1.4199561E-2,-5.4612167E-2,1.1392071E-1,3.5254117E-2,9.4717756E-2,-3.1745505E-2,1.0907807E-1,-1.2624574E-2,9.763092E-3,5.8148112E-2,9.794747E-2,7.224763E-5,1.17232256E-1,-2.0665389E-2,5.130854E-2,-2.8685471E-2,3.3279773E-2,-7.390577E-2,-3.3506446E-2,4.07106E-3,-3.8219087E-2,-7.358763E-2,5.134007E-3,-5.4111756E-2,-1.6046306E-2,8.548375E-2,2.2952044E-2,-7.2386585E-2,-1.2215634E-2,-6.651666E-2,-5.288887E-2,-8.571898E-2,-7.038652E-2,-8.524908E-2],"categories":[],"categories_nodes":[],"categories_segments":[],"categories_sizes":[],"default_left":[0,0,0,0,0,0,0,0,0,0,0,0,0,0,0,0,0,0,0,0,0,0,0,0,0,0,0,0,0,0,0,0,0,0,0,0,0,0,0,0,0,0,0,0,0,0,0,0,0,0,0,0,0,0,0,0,0,0,0,0,0,0,0,0,0,0,0,0,0,0,0,0,0,0,0,0,0,0,0,0,0,0,0,0,0,0,0,0,0,0,0,0,0,0,0,0,0,0,0,0,0,0,0,0,0,0,0,0,0,0,0,0,0,0,0,0,0,0,0,0,0,0,0,0,0,0,0],"id":3,"left_children":[1,3,5,7,9,11,13,15,17,19,21,23,25,27,29,31,33,35,37,39,41,43,45,47,49,51,53,55,57,59,61,63,65,67,69,71,73,75,77,79,81,83,85,87,89,91,93,95,97,99,101,103,105,107,109,111,113,115,117,119,121,123,125,-1,-1,-1,-1,-1,-1,-1,-1,-1,-1,-1,-1,-1,-1,-1,-1,-1,-1,-1,-1,-1,-1,-1,-1,-1,-1,-1,-1,-1,-1,-1,-1,-1,-1,-1,-1,-1,-1,-1,-1,-1,-1,-1,-1,-1,-1,-1,-1,-1,-1,-1,-1,-1,-1,-1,-1,-1,-1,-1,-1,-1,-1,-1,-1],"loss_changes":[1.5356162E3,6.0390686E2,7.1215704E2,2.422124E2,6.737224E1,7.223517E1,2.2772327E2,4.79093E1,1.6653864E2,2.598653E1,3.4410706E1,5.7672974E1,2.160167E1,1.2239699E2,3.358362E1,1.9713776E1,4.469983E1,4.4099792E1,7.320056E1,1.7059246E1,2.3513908E1,5.3085327E0,2.6536499E1,2.2981796E1,3.6855774E1,1.1553322E1,7.268511E0,8.406298E1,2.4781097E1,1.026202E1,2.2358887E1,1.4371307E1,8.893585E0,2.3465881E1,3.6845398E1,2.8961853E1,8.7275095E0,7.908392E1,1.5498014E1,2.059944E1,1.5240101E1,5.6624117E0,2.1001223E1,2.0285645E0,6.7807426E0,6.159973E0,1.936967E1,2.1762665E1,9.091004E0,1.4025717E1,3.1084106E1,1.4694399E1,8.41459E0,8.357398E0,1.0623407E1,5.324179E1,1.2503563E1,2.2493042E1,1.4163335E1,9.294575E0,1.0783825E1,1.9693787E1,4.248352E0,0E0,0E0,0E0,0E0,0E0,0E0,0E0,0E0,0E0,0E0,0E0,0E0,0E0,0E0,0E0,0E0,0E0,0E0,0E0,0E0,0E0,0E0,0E0,0E0,0E0,0E0,0E0,0E0,0E0,0E0,0E0,0E0,0E0,0E0,0E0,0E0,0E0,0E0,0E0,0E0,0E0,0E0,0E0,0E0,0E0,0E0,0E0,0E0,0E0,0E0,0E0,0E0,0E0,0E0,0E0,0E0,0E0,0E0,0E0,0E0,0E0,0E0,0E0,0E0],"parents":[2147483647,0,0,1,1,2,2,3,3,4,4,5,5,6,6,7,7,8,8,9,9,10,10,11,11,12,12,13,13,14,14,15,15,16,16,17,17,18,18,19,19,20,20,21,21,22,22,23,23,24,24,25,25,26,26,27,27,28,28,29,29,30,30,31,31,32,32,33,33,34,34,35,35,36,36,37,37,38,38,39,39,40,40,41,41,42,42,43,43,44,44,45,45,46,46,47,47,48,48,49,49,50,50,51,51,52,52,53,53,54,54,55,55,56,56,57,57,58,58,59,59,60,60,61,61,62,62],"right_children":[2,4,6,8,10,12,14,16,18,20,22,24,26,28,30,32,34,36,38,40,42,44,46,48,50,52,54,56,58,60,62,64,66,68,70,72,74,76,78,80,82,84,86,88,90,92,94,96,98,100,102,104,106,108,110,112,114,116,118,120,122,124,126,-1,-1,-1,-1,-1,-1,-1,-1,-1,-1,-1,-1,-1,-1,-1,-1,-1,-1,-1,-1,-1,-1,-1,-1,-1,-1,-1,-1,-1,-1,-1,-1,-1,-1,-1,-1,-1,-1,-1,-1,-1,-1,-1,-1,-1,-1,-1,-1,-1,-1,-1,-1,-1,-1,-1,-1,-1,-1,-1,-1,-1,-1,-1,-1],"split_conditions":[4.5429537E-1,5.3707E-1,3.1547216E-1,2.8371188E-1,2.4993299E-1,5.3318393E-1,5.6737924E-1,2.0199962E-1,1.5357058E-1,4.0188727E-1,-1.7869E4,1.3259749E-1,6.089479E-1,6.665105E-1,4.141591E-1,1.4E1,1.1319635E-1,5.992799E-1,5.094732E-1,2.7423E4,2.0376E5,1.125E5,-2.309E3,8.189E-1,-1.9263E4,-1.5889E4,6.929495E-1,5.094732E-1,3E0,1.64475E4,6.764328E-1,3.15E5,2.34E5,2.6064E5,2.62398E-1,1.91205E4,4.05E5,-1.9862E4,6.860193E-1,-7.19E2,5.954562E-1,-2.156E3,5.5594124E-2,3.581494E-1,3.2196444E-1,-4.7E1,5.396134E-1,6.795E5,2.083E-1,5.0571287E-1,1E0,7.053827E-1,7.546094E-2,-7.547E3,5.28E-2,-1.9921E4,7.65E-2,2.6528794E-1,-1.2458E4,4.28E-2,7.110777E-1,6.9943875E-1,7.3069537E-1,2.2849293E-1,-4.6566096E-3,1.2627332E-1,-5.3396743E-2,7.7386014E-2,1.6500972E-1,1.1470939E-1,6.642248E-2,7.4612856E-2,1.2172892E-1,-6.9732144E-2,2.8189579E-2,1.6733287E-4,5.4450966E-2,6.740241E-3,-4.2823967E-2,-4.546116E-2,8.6796544E-2,2.3689151E-1,7.730626E-2,-5.8984585E-2,9.463326E-3,7.261493E-2,8.438184E-3,4.2968053E-2,-6.7944214E-2,-1.6640238E-2,-5.3349085E-2,-4.228053E-2,1.0903567E-1,1.4199561E-2,-5.4612167E-2,1.1392071E-1,3.5254117E-2,9.4717756E-2,-3.1745505E-2,1.0907807E-1,-1.2624574E-2,9.763092E-3,5.8148112E-2,9.794747E-2,7.224763E-5,1.17232256E-1,-2.0665389E-2,5.130854E-2,-2.8685471E-2,3.3279773E-2,-7.390577E-2,-3.3506446E-2,4.07106E-3,-3.8219087E-2,-7.358763E-2,5.134007E-3,-5.4111756E-2,-1.6046306E-2,8.548375E-2,2.2952044E-2,-7.2386585E-2,-1.2215634E-2,-6.651666E-2,-5.288887E-2,-8.571898E-2,-7.038652E-2,-8.524908E-2],"split_indices":[28,29,29,29,28,27,29,27,28,27,6,29,28,28,27,20,29,27,27,3,2,1,7,61,6,6,27,27,18,3,28,1,1,2,28,3,2,6,27,77,29,8,28,27,28,9,27,4,52,27,79,27,29,8,55,6,59,27,6,69,28,27,28,0,0,0,0,0,0,0,0,0,0,0,0,0,0,0,0,0,0,0,0,0,0,0,0,0,0,0,0,0,0,0,0,0,0,0,0,0,0,0,0,0,0,0,0,0,0,0,0,0,0,0,0,0,0,0,0,0,0,0,0,0,0,0,0],"split_type":[0,0,0,0,0,0,0,0,0,0,0,0,0,0,0,0,0,0,0,0,0,0,0,0,0,0,0,0,0,0,0,0,0,0,0,0,0,0,0,0,0,0,0,0,0,0,0,0,0,0,0,0,0,0,0,0,0,0,0,0,0,0,0,0,0,0,0,0,0,0,0,0,0,0,0,0,0,0,0,0,0,0,0,0,0,0,0,0,0,0,0,0,0,0,0,0,0,0,0,0,0,0,0,0,0,0,0,0,0,0,0,0,0,0,0,0,0,0,0,0,0,0,0,0,0,0,0],"sum_hessian":[1.3703585E4,4.9850747E3,8.71851E3,3.5161636E3,1.4689113E3,1.4329651E3,7.285545E3,9.1813574E2,2.5980278E3,5.5174005E2,9.171712E2,1.1673088E3,2.6565637E2,4.2905854E3,2.994959E3,8.56689E1,8.3246686E2,6.020002E2,1.9960277E3,7.610972E1,4.756303E2,3.621234E2,5.550478E2,2.6755325E2,8.9975555E2,1.1658977E2,1.4906659E2,2.884602E3,1.4059836E3,3.5849716E2,2.636462E3,5.606734E1,2.960156E1,1.8783243E2,6.446344E2,5.655013E2,3.6498924E1,1.7311914E3,2.648364E2,4.673467E1,2.9375051E1,7.026557E1,4.0536475E2,1.3339674E2,2.2872667E2,1.9818059E2,3.5686722E2,2.405922E2,2.6961067E1,1.6684045E2,7.329151E2,6.084688E1,5.5742886E1,8.065786E1,6.840873E1,2.3195857E3,5.650162E2,1.3329823E3,7.3001366E1,8.909853E1,2.6939862E2,1.7304392E3,9.060227E2,5.3329865E1,2.7374759E0,2.7095875E1,2.505686E0,4.2110035E1,1.457224E2,3.117835E2,3.3285092E2,2.215448E2,3.4395645E2,1.38043585E1,2.2694565E1,3.3202887E2,1.3991625E3,1.6323982E2,1.01596596E2,1.9248798E1,2.7485868E1,8.50215E0,2.0872902E1,5.5188522E1,1.507705E1,5.8866104E1,3.4649866E2,1.0394516E0,1.3235728E2,7.681305E1,1.5191362E2,1.9638026E2,1.8003238E0,3.107749E2,4.609232E1,1.9641234E2,4.4179855E1,6.768512E0,2.0192554E1,9.072278E0,1.5776817E2,1.747164E2,5.5819867E2,3.2665646E1,2.8181238E1,3.8342364E0,5.190865E1,1.5301791E1,6.535607E1,1.0363821E1,5.804491E1,4.7271994E2,1.8468658E3,4.332381E2,1.3177809E2,6.732217E1,1.2656602E3,5.58727E1,1.7128662E1,1.1273655E1,7.782488E1,2.2661165E2,4.278697E1,1.5198798E3,2.1055939E2,5.394472E2,3.6657553E2],"tree_param":{"num_deleted":"0","num_feature":"104","num_nodes":"127","size_leaf_vector":"1"}},{"base_weights":[-6.990636E-3,3.72489E-1,-2.4392162E-1,5.566986E-1,-9.389839E-2,1.9242504E-1,-4.068104E-1,8.555373E-1,3.9741778E-1,1.4203739E-1,-2.51037E-1,5.0231904E-1,2.752313E-2,-2.6589167E-1,-5.725935E-1,9.219657E-1,3.0091873E-1,6.323676E-1,1.7518736E-1,-1.4072798E-2,4.3085587E-1,-4.7384298E-1,-1.1081364E-1,6.252432E-1,2.7293498E-2,1.267079E-1,-3.7535706E-1,-1.8717313E-1,-5.7959044E-1,-2.9560536E-1,-6.112128E-1,4.1746852E-1,9.905929E-1,4.3520632E-1,-2.7662984E-1,5.5221105E-1,1.2848845E0,2.2131851E-1,-6.5535134E-1,1.3215913E-1,-2.2253619E-1,5.7595605E-1,-2.0316008E-1,-6.5770245E-1,-3.670453E-1,-3.9489746E-1,4.2853728E-2,3.8381615E-1,8.369665E-1,1.7594102E-1,-5.4024947E-1,2.3203827E-2,4.1774884E-1,-2.1681772E-1,-5.934266E-1,-1.1520677E-1,-5.160167E-1,-6.6538155E-1,-4.0324306E-1,-5.7293E-1,-2.037423E-1,-5.442261E-1,-7.386674E-1,-4.2734027E-2,5.2753694E-2,1.1497722E-1,7.4611485E-2,-1.7006228E-2,5.8050025E-2,1.1239921E-1,-3.8865317E-2,7.3077395E-3,6.371694E-2,5.5357255E-2,1.544045E-1,-8.532576E-3,3.0570144E-2,-7.3176414E-2,1.759772E-2,-5.8914437E-3,4.0760186E-2,-3.241226E-2,2.4567362E-2,1.0148518E-2,1.00060955E-1,4.153274E-2,-7.3385976E-2,-6.9516644E-2,-1.39841335E-2,-1.01620825E-2,-4.787327E-2,-4.1348707E-2,8.857806E-2,1.2569956E-1,7.0757E-4,5.8851834E-2,1.30978795E-2,9.547224E-2,2.0202974E-2,1.4214487E-1,1.1573251E-2,-7.555223E-2,1.9270383E-2,7.863458E-2,-2.0360537E-3,4.37382E-3,7.051289E-2,-2.6277212E-2,7.124777E-2,2.4296148E-2,-6.725398E-2,-4.0786456E-2,-5.166383E-3,-4.3108292E-2,-7.4611716E-2,-6.77055E-2,3.8231146E-2,4.52463E-3,-4.680611E-2,2.0595934E-2,-6.9621794E-2,-1.221881E-2,-6.3588805E-2,-5.0475247E-2,-8.323013E-2,-7.577913E-2,-4.519617E-2],"categories":[],"categories_nodes":[],"categories_segments":[],"categories_sizes":[],"default_left":[0,0,0,0,0,0,0,0,0,0,0,0,0,0,0,0,0,0,0,0,0,0,0,0,0,0,0,0,0,0,0,0,0,0,0,0,0,0,0,0,0,0,0,0,0,0,0,0,0,0,0,0,0,0,0,0,0,0,0,0,0,0,0,0,0,0,0,0,0,0,0,0,0,0,0,0,0,0,0,0,0,0,0,0,0,0,0,0,0,0,0,0,0,0,0,0,0,0,0,0,0,0,0,0,0,0,0,0,0,0,0,0,0,0,0,0,0,0,0,0,0,0,0,0,0,0,0],"id":4,"left_children":[1,3,5,7,9,11,13,15,17,19,21,23,25,27,29,31,33,35,37,39,41,43,45,47,49,51,53,55,57,59,61,63,65,67,69,71,73,75,77,79,81,83,85,87,89,91,93,95,97,99,101,103,105,107,109,111,113,115,117,119,121,123,125,-1,-1,-1,-1,-1,-1,-1,-1,-1,-1,-1,-1,-1,-1,-1,-1,-1,-1,-1,-1,-1,-1,-1,-1,-1,-1,-1,-1,-1,-1,-1,-1,-1,-1,-1,-1,-1,-1,-1,-1,-1,-1,-1,-1,-1,-1,-1,-1,-1,-1,-1,-1,-1,-1,-1,-1,-1,-1,-1,-1,-1,-1,-1,-1],"loss_changes":[1.2299454E3,4.517906E2,5.986495E2,1.7908362E2,5.5263012E1,1.1700459E2,1.4311908E2,4.7975647E1,1.2837222E2,2.6884712E1,2.7893475E1,4.641913E1,5.9812958E1,8.179605E1,2.99516E1,4.0064697E1,1.1100546E1,6.1832825E1,4.8649708E1,1.18555565E1,1.9362362E1,6.5367966E0,2.4039341E1,3.1969513E1,1.3975403E1,3.6166847E1,1.0095242E1,6.2723785E1,9.790512E0,8.713831E0,2.0697021E1,1.3403866E1,3.9163757E1,1.0234449E1,4.723304E0,4.3374695E1,2.379628E1,3.1079773E1,4.3766212E0,1.2056931E1,7.7047124E0,3.425146E1,1.3335449E1,2.339077E0,6.4916058E0,4.9674892E0,1.5543216E1,1.5294647E1,2.4907837E1,9.66935E0,5.5724916E0,2.9502865E1,3.3825172E1,7.5670834E0,8.362663E0,4.0479378E1,8.981972E0,5.710251E0,6.4204674E0,8.37266E0,9.153486E0,1.8043457E1,4.3101196E0,0E0,0E0,0E0,0E0,0E0,0E0,0E0,0E0,0E0,0E0,0E0,0E0,0E0,0E0,0E0,0E0,0E0,0E0,0E0,0E0,0E0,0E0,0E0,0E0,0E0,0E0,0E0,0E0,0E0,0E0,0E0,0E0,0E0,0E0,0E0,0E0,0E0,0E0,0E0,0E0,0E0,0E0,0E0,0E0,0E0,0E0,0E0,0E0,0E0,0E0,0E0,0E0,0E0,0E0,0E0,0E0,0E0,0E0,0E0,0E0,0E0,0E0,0E0,0E0],"parents":[2147483647,0,0,1,1,2,2,3,3,4,4,5,5,6,6,7,7,8,8,9,9,10,10,11,11,12,12,13,13,14,14,15,15,16,16,17,17,18,18,19,19,20,20,21,21,22,22,23,23,24,24,25,25,26,26,27,27,28,28,29,29,30,30,31,31,32,32,33,33,34,34,35,35,36,36,37,37,38,38,39,39,40,40,41,41,42,42,43,43,44,44,45,45,46,46,47,47,48,48,49,49,50,50,51,51,52,52,53,53,54,54,55,55,56,56,57,57,58,58,59,59,60,60,61,61,62,62],"right_children":[2,4,6,8,10,12,14,16,18,20,22,24,26,28,30,32,34,36,38,40,42,44,46,48,50,52,54,56,58,60,62,64,66,68,70,72,74,76,78,80,82,84,86,88,90,92,94,96,98,100,102,104,106,108,110,112,114,116,118,120,122,124,126,-1,-1,-1,-1,-1,-1,-1,-1,-1,-1,-1,-1,-1,-1,-1,-1,-1,-1,-1,-1,-1,-1,-1,-1,-1,-1,-1,-1,-1,-1,-1,-1,-1,-1,-1,-1,-1,-1,-1,-1,-1,-1,-1,-1,-1,-1,-1,-1,-1,-1,-1,-1,-1,-1,-1,-1,-1,-1,-1,-1,-1,-1,-1,-1],"split_conditions":[4.6061268E-1,5.3707E-1,4.1184855E-1,3.360615E-1,2.5929493E-1,2.2258076E-1,5.6737924E-1,5.3318393E-1,2.6781276E-1,-1.3851E4,-1.7869E4,6.795E5,5.2712893E-1,7.0144266E-1,4.141591E-1,1.87704E5,9.841E-1,1E0,6.799197E-1,6.894792E-1,6.795E5,1.125E5,-2.309E3,2.11545E4,7.029517E-1,1E0,6.5523416E-1,5.396134E-1,2E0,1.6542E4,6.764328E-1,-1.542E3,4.545E5,1.125E5,9.216E3,-3.175E3,2.6064E5,-1.34E3,1E0,-3.192E3,-1.5466E4,3.27024E5,6.3303167E-1,1E0,3.2196444E-1,-4.7E1,1.5086418E-1,2.34E5,1.138E-1,1.9268435E-1,-4.66E2,1.9268435E-1,-1.421E3,-2.85E2,3.5E-2,-2.048E4,7.53E-2,3E0,1E1,4.28E-2,7.110777E-1,6.9943875E-1,1E0,-4.2734027E-2,5.2753694E-2,1.1497722E-1,7.4611485E-2,-1.7006228E-2,5.8050025E-2,1.1239921E-1,-3.8865317E-2,7.3077395E-3,6.371694E-2,5.5357255E-2,1.544045E-1,-8.532576E-3,3.0570144E-2,-7.3176414E-2,1.759772E-2,-5.8914437E-3,4.0760186E-2,-3.241226E-2,2.4567362E-2,1.0148518E-2,1.00060955E-1,4.153274E-2,-7.3385976E-2,-6.9516644E-2,-1.39841335E-2,-1.01620825E-2,-4.787327E-2,-4.1348707E-2,8.857806E-2,1.2569956E-1,7.0757E-4,5.8851834E-2,1.30978795E-2,9.547224E-2,2.0202974E-2,1.4214487E-1,1.1573251E-2,-7.555223E-2,1.9270383E-2,7.863458E-2,-2.0360537E-3,4.37382E-3,7.051289E-2,-2.6277212E-2,7.124777E-2,2.4296148E-2,-6.725398E-2,-4.0786456E-2,-5.166383E-3,-4.3108292E-2,-7.4611716E-2,-6.77055E-2,3.8231146E-2,4.52463E-3,-4.680611E-2,2.0595934E-2,-6.9621794E-2,-1.221881E-2,-6.3588805E-2,-5.0475247E-2,-8.323013E-2,-7.577913E-2,-4.519617E-2],"split_indices":[28,29,29,29,28,29,29,27,28,6,6,4,27,28,27,2,46,24,27,29,4,1,7,3,28,25,28,27,103,3,28,77,4,1,3,7,2,77,76,9,6,2,29,26,28,9,27,4,55,27,77,27,7,8,41,6,72,0,20,69,28,27,76,0,0,0,0,0,0,0,0,0,0,0,0,0,0,0,0,0,0,0,0,0,0,0,0,0,0,0,0,0,0,0,0,0,0,0,0,0,0,0,0,0,0,0,0,0,0,0,0,0,0,0,0,0,0,0,0,0,0,0,0,0,0,0,0],"split_type":[0,0,0,0,0,0,0,0,0,0,0,0,0,0,0,0,0,0,0,0,0,0,0,0,0,0,0,0,0,0,0,0,0,0,0,0,0,0,0,0,0,0,0,0,0,0,0,0,0,0,0,0,0,0,0,0,0,0,0,0,0,0,0,0,0,0,0,0,0,0,0,0,0,0,0,0,0,0,0,0,0,0,0,0,0,0,0,0,0,0,0,0,0,0,0,0,0,0,0,0,0,0,0,0,0,0,0,0,0,0,0,0,0,0,0,0,0,0,0,0,0,0,0,0,0,0,0],"sum_hessian":[1.3677655E4,5.2570874E3,8.420567E3,3.7684604E3,1.4886271E3,2.2888943E3,6.1316733E3,1.3087139E3,2.4597466E3,5.9514404E2,8.934831E2,7.9424786E2,1.4946465E3,3.3157915E3,2.8158816E3,1.1681396E3,1.4057419E2,1.1947593E3,1.2649873E3,3.8694595E2,2.081981E2,3.441969E2,5.492862E2,6.3071826E2,1.6352959E2,1.1999237E3,2.947228E2,2.6519233E3,6.638682E2,3.4562415E2,2.4702576E3,1.4072374E2,1.0274159E3,1.1425489E2,2.6319296E1,1.0656935E3,1.290658E2,1.1991176E3,6.586984E1,2.2763303E2,1.5931293E2,1.6949846E2,3.8699642E1,1.2457467E2,2.1962224E2,1.9226935E2,3.570168E2,2.9600177E2,3.347165E2,1.301353E2,3.3394283E1,8.859348E2,3.1398886E2,1.7180942E2,1.2291338E2,2.1768723E3,4.750511E2,4.4473584E2,2.1913235E2,8.469683E1,2.609273E2,1.6226876E3,8.475699E2,1.5888915E1,1.2483483E2,6.200195E2,4.0739645E2,2.2084467E1,9.217042E1,1.2801455E0,2.503915E1,1.6078505E2,9.0490845E2,3.459107E1,9.4474724E1,2.5876483E2,9.4035266E2,6.043467E1,5.4351764E0,1.348643E2,9.276873E1,1.3116261E2,2.815031E1,8.063874E1,8.885972E1,1.7972061E1,2.0727583E1,1.1585119E2,8.723484E0,6.561007E1,1.5401216E2,1.9018584E2,2.0835016E0,9.242305E0,3.4777454E2,1.6283755E2,1.3316422E2,2.819265E2,5.2789978E1,4.958208E0,1.251771E2,2.578908E1,7.605202E0,4.6922157E1,8.3901263E2,1.3693156E2,1.770573E2,1.6439708E2,7.412332E0,1.0442604E1,1.1247078E2,3.873674E2,1.7895049E3,3.4907516E2,1.2597593E2,4.4018506E2,4.55078E0,2.7709131E1,1.9142323E2,1.1482695E1,7.3214134E1,2.20582E2,4.0345306E1,1.4295543E3,1.9313332E2,7.9302997E2,5.453992E1],"tree_param":{"num_deleted":"0","num_feature":"104","num_nodes":"127","size_leaf_vector":"1"}},{"base_weights":[-7.4763354E-3,3.0113786E-1,-2.4439317E-1,4.551541E-1,-1.2776506E-1,1.5282981E-1,-3.9837667E-1,7.552993E-1,3.3012167E-1,1.3849787E-1,-2.4778599E-1,3.6967987E-1,-3.4122657E-2,-2.7034184E-1,-5.542996E-1,1.4972512E0,6.9901556E-1,6.831698E-1,2.2886883E-1,5.601455E-1,5.245764E-2,-4.5346808E-1,-1.1933793E-1,4.7844526E-1,-4.2216E-2,5.7122447E-2,-3.9922094E-1,-1.9953573E-1,-5.583736E-1,-1.1269674E-1,-5.8203346E-1,1.63973E0,-8.702992E-2,3.6533558E-1,8.067485E-1,3.0869958E-1,7.82822E-1,-2.6752934E-2,3.2552373E-1,3.0329537E-1,1.40057E0,7.2089946E-1,-1.1685712E-2,-2.4952461E-1,-5.21571E-1,-4.091593E-1,3.3177987E-2,5.5955654E-1,1.55623015E-2,-8.127029E-2,1.1499141E0,-4.7594953E-2,3.5209036E-1,-4.406629E-1,4.7117433E-1,-1.3725983E-1,-5.5973655E-1,-4.9242175E-1,-7.496561E-1,3.8502425E-2,-6.4818823E-1,-4.8718697E-1,-6.8240035E-1,1.872469E-1,7.834645E-2,-4.65287E-2,1.21045224E-1,1.2071935E-1,2.4121732E-2,-8.191179E-4,8.508819E-2,4.0788762E-2,-5.18156E-2,4.4701766E-2,9.355261E-2,-2.698617E-2,6.6963895E-3,-1.3957016E-2,3.9147552E-2,4.742904E-2,-7.049347E-2,5.71001E-2,2.0308068E-1,1.2793705E-1,8.385302E-3,-5.841908E-2,4.603555E-3,-9.493467E-2,-1.8510861E-2,-8.36353E-2,-4.6893295E-2,-7.494026E-2,-3.3521272E-2,1.0992254E-2,-4.7826827E-2,1.2458686E-2,6.38911E-2,-4.922545E-2,3.0368736E-2,4.091915E-2,-1.858863E-2,2.4736193E-1,-3.343012E-2,4.111978E-2,-1.1742624E-2,1.1227493E-3,6.0683012E-2,3.461039E-2,-4.8613723E-2,-4.450092E-2,1.4476193E-1,1.7814301E-1,-1.4681674E-2,-6.61438E-2,-3.5333663E-2,-6.398126E-2,-3.7912015E-2,-7.607469E-2,4.5770034E-2,-1.0097365E-2,7.676593E-2,-8.285206E-2,4.601388E-2,-4.4593584E-2,-8.283938E-2,-6.2771015E-2,-8.138065E-2],"categories":[],"categories_nodes":[],"categories_segments":[],"categories_sizes":[],"default_left":[0,0,0,0,0,0,0,0,0,0,0,0,0,0,0,0,0,0,0,0,0,0,0,0,0,0,0,0,0,0,0,0,0,0,0,0,0,0,0,0,0,0,0,0,0,0,0,0,0,0,0,0,0,0,0,0,0,0,0,0,0,0,0,0,0,0,0,0,0,0,0,0,0,0,0,0,0,0,0,0,0,0,0,0,0,0,0,0,0,0,0,0,0,0,0,0,0,0,0,0,0,0,0,0,0,0,0,0,0,0,0,0,0,0,0,0,0,0,0,0,0,0,0,0,0,0,0],"id":5,"left_children":[1,3,5,7,9,11,13,15,17,19,21,23,25,27,29,31,33,35,37,39,41,43,45,47,49,51,53,55,57,59,61,63,65,67,69,71,73,75,77,79,81,83,85,87,89,91,93,95,97,99,101,103,105,107,109,111,113,115,117,119,121,123,125,-1,-1,-1,-1,-1,-1,-1,-1,-1,-1,-1,-1,-1,-1,-1,-1,-1,-1,-1,-1,-1,-1,-1,-1,-1,-1,-1,-1,-1,-1,-1,-1,-1,-1,-1,-1,-1,-1,-1,-1,-1,-1,-1,-1,-1,-1,-1,-1,-1,-1,-1,-1,-1,-1,-1,-1,-1,-1,-1,-1,-1,-1,-1,-1],"loss_changes":[9.9797235E2,3.9162823E2,4.7235306E2,1.6343634E2,5.0109932E1,8.74905E1,1.10941895E2,5.2484314E1,1.0997452E2,1.765672E1,2.8490936E1,4.4779633E1,3.8655975E1,6.2246094E1,3.0652588E1,2.0347412E1,4.2604797E1,2.5362885E1,5.9199287E1,1.7387539E1,1.7415703E1,5.6338196E0,2.9472622E1,2.9669373E1,9.853286E0,2.8702229E1,8.576176E0,5.5011497E1,7.235031E0,1.2125362E1,2.2130554E1,1.4909241E1,4.6539927E0,3.0333248E1,3.2422485E1,1.2174408E1,2.7337646E1,1.5014894E1,5.337964E1,1.1450438E1,8.794533E0,1.2545198E1,1.2300956E1,4.5939646E0,4.747528E0,5.5322037E0,1.7228352E1,2.3135544E1,1.75448E1,1.0538853E1,1.4020847E1,2.2034447E1,2.1130894E1,8.11002E0,1.0509461E1,3.867945E1,7.3583374E0,7.2912903E0,2.3919678E0,1.2026013E1,6.9694386E0,1.6755981E1,7.7106323E0,0E0,0E0,0E0,0E0,0E0,0E0,0E0,0E0,0E0,0E0,0E0,0E0,0E0,0E0,0E0,0E0,0E0,0E0,0E0,0E0,0E0,0E0,0E0,0E0,0E0,0E0,0E0,0E0,0E0,0E0,0E0,0E0,0E0,0E0,0E0,0E0,0E0,0E0,0E0,0E0,0E0,0E0,0E0,0E0,0E0,0E0,0E0,0E0,0E0,0E0,0E0,0E0,0E0,0E0,0E0,0E0,0E0,0E0,0E0,0E0,0E0,0E0,0E0,0E0],"parents":[2147483647,0,0,1,1,2,2,3,3,4,4,5,5,6,6,7,7,8,8,9,9,10,10,11,11,12,12,13,13,14,14,15,15,16,16,17,17,18,18,19,19,20,20,21,21,22,22,23,23,24,24,25,25,26,26,27,27,28,28,29,29,30,30,31,31,32,32,33,33,34,34,35,35,36,36,37,37,38,38,39,39,40,40,41,41,42,42,43,43,44,44,45,45,46,46,47,47,48,48,49,49,50,50,51,51,52,52,53,53,54,54,55,55,56,56,57,57,58,58,59,59,60,60,61,61,62,62],"right_children":[2,4,6,8,10,12,14,16,18,20,22,24,26,28,30,32,34,36,38,40,42,44,46,48,50,52,54,56,58,60,62,64,66,68,70,72,74,76,78,80,82,84,86,88,90,92,94,96,98,100,102,104,106,108,110,112,114,116,118,120,122,124,126,-1,-1,-1,-1,-1,-1,-1,-1,-1,-1,-1,-1,-1,-1,-1,-1,-1,-1,-1,-1,-1,-1,-1,-1,-1,-1,-1,-1,-1,-1,-1,-1,-1,-1,-1,-1,-1,-1,-1,-1,-1,-1,-1,-1,-1,-1,-1,-1,-1,-1,-1,-1,-1,-1,-1,-1,-1,-1,-1,-1,-1,-1,-1,-1],"split_conditions":[4.894305E-1,5.478105E-1,4.1184855E-1,1.8768208E-1,2.3188819E-1,2.6224896E-1,5.7091653E-1,1.824966E-1,2.580842E-1,5.5594124E-2,-1.7869E4,6.8815434E-1,5.210064E-1,5.3318393E-1,3.0022234E-1,8.73342E5,1E0,1.5003E4,1E0,4.476854E-2,3.0022234E-1,6.1782616E-1,-2.334E3,9.861E-1,8E0,1E0,-2.85E2,7.1598995E-1,2E-3,8.39E-2,6.467985E-1,-1E1,1.5E1,2.2967095E-2,-5.375E3,4E0,-1.801E3,-4.161E3,-3.83E3,3.63915E4,-1.4891E4,1E0,1.6173E5,7.8E-3,-4.409E3,-1.929E3,5.396134E-1,8E0,-3.576E3,1.0211879E-1,2.6392E-2,3.07029E-1,-1.421E3,1.87E-2,-7.13E2,7.9108156E-2,2E0,-1.818E3,8.8E-1,-3.49E2,4.76955E4,6.9943875E-1,7.3069537E-1,1.872469E-1,7.834645E-2,-4.65287E-2,1.21045224E-1,1.2071935E-1,2.4121732E-2,-8.191179E-4,8.508819E-2,4.0788762E-2,-5.18156E-2,4.4701766E-2,9.355261E-2,-2.698617E-2,6.6963895E-3,-1.3957016E-2,3.9147552E-2,4.742904E-2,-7.049347E-2,5.71001E-2,2.0308068E-1,1.2793705E-1,8.385302E-3,-5.841908E-2,4.603555E-3,-9.493467E-2,-1.8510861E-2,-8.36353E-2,-4.6893295E-2,-7.494026E-2,-3.3521272E-2,1.0992254E-2,-4.7826827E-2,1.2458686E-2,6.38911E-2,-4.922545E-2,3.0368736E-2,4.091915E-2,-1.858863E-2,2.4736193E-1,-3.343012E-2,4.111978E-2,-1.1742624E-2,1.1227493E-3,6.0683012E-2,3.461039E-2,-4.8613723E-2,-4.450092E-2,1.4476193E-1,1.7814301E-1,-1.4681674E-2,-6.61438E-2,-3.5333663E-2,-6.398126E-2,-3.7912015E-2,-7.607469E-2,4.5770034E-2,-1.0097365E-2,7.676593E-2,-8.285206E-2,4.601388E-2,-4.4593584E-2,-8.283938E-2,-6.2771015E-2,-8.138065E-2],"split_indices":[28,29,29,28,28,29,29,27,29,28,6,28,27,27,27,2,79,3,79,28,27,29,7,46,75,25,8,28,35,41,28,77,10,28,7,17,7,9,7,3,6,73,2,48,7,77,27,10,9,29,5,27,7,58,77,27,103,7,35,7,3,27,28,0,0,0,0,0,0,0,0,0,0,0,0,0,0,0,0,0,0,0,0,0,0,0,0,0,0,0,0,0,0,0,0,0,0,0,0,0,0,0,0,0,0,0,0,0,0,0,0,0,0,0,0,0,0,0,0,0,0,0,0,0,0,0,0],"split_type":[0,0,0,0,0,0,0,0,0,0,0,0,0,0,0,0,0,0,0,0,0,0,0,0,0,0,0,0,0,0,0,0,0,0,0,0,0,0,0,0,0,0,0,0,0,0,0,0,0,0,0,0,0,0,0,0,0,0,0,0,0,0,0,0,0,0,0,0,0,0,0,0,0,0,0,0,0,0,0,0,0,0,0,0,0,0,0,0,0,0,0,0,0,0,0,0,0,0,0,0,0,0,0,0,0,0,0,0,0,0,0,0,0,0,0,0,0,0,0,0,0,0,0,0,0,0,0],"sum_hessian":[1.3647178E4,5.9266694E3,7.720509E3,4.360707E3,1.5659624E3,2.1567817E3,5.563727E3,1.2808751E3,3.0798318E3,4.8650696E2,1.0794556E3,9.980942E2,1.1586876E3,3.056578E3,2.5071492E3,8.850966E1,1.1923655E3,6.851401E2,2.3946917E3,8.1516754E1,4.049902E2,4.1399716E2,6.654584E2,7.8946594E2,2.0862827E2,9.276848E2,2.3100279E2,2.4548105E3,6.017672E2,1.484507E2,2.3586985E3,8.1174416E1,7.3352413E0,2.9208505E2,9.002804E2,1.448657E2,5.4027435E2,6.572351E2,1.7374565E3,6.3477634E1,1.8039122E1,3.4563454E1,3.7042673E2,1.0480577E2,3.0919138E2,2.2886687E2,4.365915E2,6.715763E2,1.1788963E2,2.0291266E2,5.7156105E0,6.852507E2,2.4243416E2,2.2097525E2,1.0027528E1,2.0941326E3,3.6067807E2,4.5013913E2,1.5162807E2,1.16487785E2,3.196291E1,1.2157095E3,1.1429891E3,6.2892887E1,1.8281528E1,6.176104E0,1.1591374E0,3.6408783E1,2.5567625E2,4.6292217E1,8.5398816E2,1.2980164E2,1.5064063E1,1.7011342E2,3.7016095E2,1.8234317E2,4.7489197E2,2.1564001E2,1.5218165E3,5.472577E1,8.751866E0,8.61084E0,9.428281E0,1.7880293E1,1.6683163E1,3.3091335E1,3.3733542E2,7.67593E0,9.7129845E1,4.2162956E1,2.670284E2,3.9229527E1,1.8963733E2,3.803096E2,5.6281902E1,1.0401311E2,5.675632E2,4.2418713E1,7.5470924E1,3.516067E1,1.6775198E2,2.6688054E0,3.046805E0,8.987592E1,5.9537476E2,1.0413586E2,1.3829831E2,1.17130375E1,2.0926222E2,5.4541945E0,4.573333E0,9.46018E0,2.0846724E3,2.4014465E2,1.205334E2,1.9361885E2,2.5652026E2,1.5061443E2,1.0136415E0,9.850657E1,1.7981216E1,2.7707216E1,4.255694E0,1.0866437E3,1.2906581E2,8.11165E2,3.3182407E2],"tree_param":{"num_deleted":"0","num_feature":"104","num_nodes":"127","size_leaf_vector":"1"}},{"base_weights":[-7.707351E-3,2.4361825E-1,-2.4578652E-1,3.8129315E-1,-1.485424E-1,9.3669824E-2,-3.9728668E-1,7.0116675E-1,2.958143E-1,9.797066E-2,-2.727391E-1,3.0188745E-1,-6.59248E-2,6.9318116E-2,-4.2922458E-1,1.3166351E0,6.553462E-1,4.8832607E-1,1.5680894E-1,-5.7803474E-2,2.825403E-1,-4.592808E-1,-1.6028889E-1,3.7760356E-1,-1.7534064E-1,1.7717037E-2,-4.0231493E-1,7.681318E-1,-2.8354531E-2,-3.3250105E-1,-5.7739013E-1,6.731324E-2,1.5409863E0,8.7831426E-1,5.4526013E-1,4.2352048E-1,9.779182E-1,2.1522932E-1,-1.9781987E-1,1.9067031E0,-8.101576E-2,-3.4425306E-1,3.908218E-1,-2.2602718E-1,-5.3812873E-1,-4.7629908E-1,-6.024605E-2,4.2988196E-1,-2.8043377E-1,6.3030493E-1,-2.841274E-1,-2.514125E-1,1.1096988E-1,-5.163581E-1,-1.138039E-1,9.6143955E-1,-8.561457E-2,4.0456432E-1,-1.5253529E-1,-2.6006734E-1,-5.7297003E-1,-4.795055E-1,-6.7103094E-1,1.0147671E-1,-3.9313428E-2,1.7181909E-1,-4.2374223E-3,-1.6079461E-2,9.2170574E-2,2.774E-2,6.600278E-2,6.4850333E-3,5.0111044E-2,1.446551E-1,6.6555075E-2,-1.1002206E-2,2.801728E-2,-5.3779658E-2,-9.52606E-3,2.3171777E-2,2.7665412E-1,7.6247603E-3,-2.9868199E-2,1.826111E-2,-5.2850135E-2,-2.7601609E-2,4.971431E-2,9.000804E-2,-2.7239501E-2,-5.4545946E-2,7.422411E-2,-2.3195837E-2,-6.1281662E-2,-4.305684E-2,1.0945963E-3,6.560025E-3,5.1300712E-2,1.6129006E-1,-3.4771353E-2,-3.39173E-2,1.03318885E-1,3.0206198E-2,-3.78031E-2,-2.8054489E-2,8.4725745E-2,-1.9193495E-3,3.407777E-2,-3.4403894E-2,-7.409252E-2,1.0444581E-1,-2.309514E-2,-1.5410647E-2,1.2286546E-1,8.895691E-2,1.2325887E-2,-5.5128135E-2,-1.2277228E-4,-1.9421263E-2,-5.1632345E-2,-2.475528E-2,-6.1786275E-2,-4.413377E-2,-8.023925E-2,-6.952547E-2,-3.243616E-2],"categories":[],"categories_nodes":[],"categories_segments":[],"categories_sizes":[],"default_left":[0,0,0,0,0,0,0,0,0,0,0,0,0,0,0,0,0,0,0,0,0,0,0,0,0,0,0,0,0,0,0,0,0,0,0,0,0,0,0,0,0,0,0,0,0,0,0,0,0,0,0,0,0,0,0,0,0,0,0,0,0,0,0,0,0,0,0,0,0,0,0,0,0,0,0,0,0,0,0,0,0,0,0,0,0,0,0,0,0,0,0,0,0,0,0,0,0,0,0,0,0,0,0,0,0,0,0,0,0,0,0,0,0,0,0,0,0,0,0,0,0,0,0,0,0],"id":6,"left_children":[1,3,5,7,9,11,13,15,17,19,21,23,25,27,29,31,33,35,37,39,41,43,45,47,49,51,53,55,57,59,61,63,65,67,69,71,73,75,77,79,81,83,85,87,89,91,93,95,97,99,101,103,105,107,109,111,-1,113,115,117,119,121,123,-1,-1,-1,-1,-1,-1,-1,-1,-1,-1,-1,-1,-1,-1,-1,-1,-1,-1,-1,-1,-1,-1,-1,-1,-1,-1,-1,-1,-1,-1,-1,-1,-1,-1,-1,-1,-1,-1,-1,-1,-1,-1,-1,-1,-1,-1,-1,-1,-1,-1,-1,-1,-1,-1,-1,-1,-1,-1,-1,-1,-1,-1],"loss_changes":[8.1458466E2,3.5761847E2,3.595734E2,1.3382727E2,5.2734863E1,7.173563E1,7.206738E1,2.8268768E1,1.03487366E2,1.662034E1,2.3946205E1,3.390914E1,3.4404747E1,2.121748E1,6.464801E1,1.9680328E1,2.3168732E1,5.105722E1,4.663271E1,1.4473738E1,1.80857E1,7.7890244E0,2.2605762E1,2.7939552E1,1.1479316E1,2.4624243E1,7.9526596E0,1.2791182E1,1.4760846E1,4.757263E1,1.6045593E1,5.543017E0,1.684961E1,1.4432434E1,1.9725464E1,3.9885376E1,2.6684708E1,4.082428E1,1.1057211E1,4.6989317E0,1.0679082E1,3.9302711E0,1.6160374E1,6.009148E0,3.4152832E0,5.5955696E0,1.4371508E1,2.2663254E1,8.219356E0,6.4629292E0,6.4050007E0,8.319573E0,2.1799126E1,6.4871407E0,9.774981E0,1.0483534E1,0E0,8.242986E0,1.2862358E1,3.546318E1,9.100296E0,1.0448334E1,7.4171753E0,0E0,0E0,0E0,0E0,0E0,0E0,0E0,0E0,0E0,0E0,0E0,0E0,0E0,0E0,0E0,0E0,0E0,0E0,0E0,0E0,0E0,0E0,0E0,0E0,0E0,0E0,0E0,0E0,0E0,0E0,0E0,0E0,0E0,0E0,0E0,0E0,0E0,0E0,0E0,0E0,0E0,0E0,0E0,0E0,0E0,0E0,0E0,0E0,0E0,0E0,0E0,0E0,0E0,0E0,0E0,0E0,0E0,0E0,0E0,0E0,0E0,0E0],"parents":[2147483647,0,0,1,1,2,2,3,3,4,4,5,5,6,6,7,7,8,8,9,9,10,10,11,11,12,12,13,13,14,14,15,15,16,16,17,17,18,18,19,19,20,20,21,21,22,22,23,23,24,24,25,25,26,26,27,27,28,28,29,29,30,30,31,31,32,32,33,33,34,34,35,35,36,36,37,37,38,38,39,39,40,40,41,41,42,42,43,43,44,44,45,45,46,46,47,47,48,48,49,49,50,50,51,51,52,52,53,53,54,54,55,55,57,57,58,58,59,59,60,60,61,61,62,62],"right_children":[2,4,6,8,10,12,14,16,18,20,22,24,26,28,30,32,34,36,38,40,42,44,46,48,50,52,54,56,58,60,62,64,66,68,70,72,74,76,78,80,82,84,86,88,90,92,94,96,98,100,102,104,106,108,110,112,-1,114,116,118,120,122,124,-1,-1,-1,-1,-1,-1,-1,-1,-1,-1,-1,-1,-1,-1,-1,-1,-1,-1,-1,-1,-1,-1,-1,-1,-1,-1,-1,-1,-1,-1,-1,-1,-1,-1,-1,-1,-1,-1,-1,-1,-1,-1,-1,-1,-1,-1,-1,-1,-1,-1,-1,-1,-1,-1,-1,-1,-1,-1,-1,-1,-1,-1],"split_conditions":[5.1693183E-1,5.478105E-1,4.311918E-1,2.4054141E-1,2.5929493E-1,2.6224896E-1,2.798534E-1,1.6176611E-1,2.6781276E-1,-1.526E4,-1.7869E4,7.127998E-1,5.210064E-1,1.2350817E-1,6.0927564E-1,1.24785E4,2.0468087E-1,1E0,5.094732E-1,4.05E4,-1.703E3,6.1782616E-1,-3.052E3,6.929495E-1,2.083E-1,-1.8528E4,2E0,3.29E-2,5.98E-2,7.0144266E-1,6.482309E-1,7.9108156E-2,8.0865E5,2E0,-1.853E3,1E0,-1.2119E4,-1.9974E4,2.73636E5,1E0,6.894792E-1,1E0,1.24785E4,4.9961388E-1,1E0,6.380435E-1,1.3068E4,9E0,9.617E-1,8.62E-2,8.9043885E-2,-6.89E2,-9.56E2,6.665105E-1,2.28E-2,1.38915E4,-8.561457E-2,6.022625E-1,1E0,5.2712893E-1,1E1,6.9943875E-1,1E0,1.0147671E-1,-3.9313428E-2,1.7181909E-1,-4.2374223E-3,-1.6079461E-2,9.2170574E-2,2.774E-2,6.600278E-2,6.4850333E-3,5.0111044E-2,1.446551E-1,6.6555075E-2,-1.1002206E-2,2.801728E-2,-5.3779658E-2,-9.52606E-3,2.3171777E-2,2.7665412E-1,7.6247603E-3,-2.9868199E-2,1.826111E-2,-5.2850135E-2,-2.7601609E-2,4.971431E-2,9.000804E-2,-2.7239501E-2,-5.4545946E-2,7.422411E-2,-2.3195837E-2,-6.1281662E-2,-4.305684E-2,1.0945963E-3,6.560025E-3,5.1300712E-2,1.6129006E-1,-3.4771353E-2,-3.39173E-2,1.03318885E-1,3.0206198E-2,-3.78031E-2,-2.8054489E-2,8.4725745E-2,-1.9193495E-3,3.407777E-2,-3.4403894E-2,-7.409252E-2,1.0444581E-1,-2.309514E-2,-1.5410647E-2,1.2286546E-1,8.895691E-2,1.2325887E-2,-5.5128135E-2,-1.2277228E-4,-1.9421263E-2,-5.1632345E-2,-2.475528E-2,-6.1786275E-2,-4.413377E-2,-8.023925E-2,-6.952547E-2,-3.243616E-2],"split_indices":[28,29,29,29,28,29,27,27,28,6,6,28,27,27,29,3,28,24,27,1,77,29,7,27,38,6,75,34,72,28,28,27,2,19,7,12,6,6,2,82,29,103,3,27,99,29,3,10,32,64,29,9,7,28,41,3,0,28,79,27,20,27,76,0,0,0,0,0,0,0,0,0,0,0,0,0,0,0,0,0,0,0,0,0,0,0,0,0,0,0,0,0,0,0,0,0,0,0,0,0,0,0,0,0,0,0,0,0,0,0,0,0,0,0,0,0,0,0,0,0,0,0,0,0,0],"split_type":[0,0,0,0,0,0,0,0,0,0,0,0,0,0,0,0,0,0,0,0,0,0,0,0,0,0,0,0,0,0,0,0,0,0,0,0,0,0,0,0,0,0,0,0,0,0,0,0,0,0,0,0,0,0,0,0,0,0,0,0,0,0,0,0,0,0,0,0,0,0,0,0,0,0,0,0,0,0,0,0,0,0,0,0,0,0,0,0,0,0,0,0,0,0,0,0,0,0,0,0,0,0,0,0,0,0,0,0,0,0,0,0,0,0,0,0,0,0,0,0,0,0,0,0,0],"sum_hessian":[1.361176E4,6.621658E3,6.990102E3,4.9010767E3,1.7205815E3,2.157135E3,4.8329673E3,1.0319973E3,3.869079E3,5.765071E2,1.1440745E3,9.355992E2,1.2215358E3,3.0953705E2,4.52343E3,6.958507E1,9.624123E2,1.621254E3,2.2478252E3,3.1301428E2,2.6349277E2,4.29124E2,7.149505E2,8.0766534E2,1.2793387E2,9.790475E2,2.4248827E2,3.7116573E1,2.7242047E2,2.7387798E3,1.7846505E3,1.0791507E1,5.8793564E1,3.1580438E2,6.466079E2,1.4333867E3,1.8786732E2,1.9302374E3,3.1758774E2,2.7077699E0,3.1030652E2,3.8493256E1,2.2499951E2,1.09388794E2,3.197352E2,1.7101045E2,5.4394E2,7.4854333E2,5.9122013E1,1.464952E1,1.1328435E2,2.515045E2,7.2754297E2,1.7322562E2,6.926264E1,3.3533752E1,3.5828226E0,6.022082E1,2.1219965E2,2.1063804E3,6.323994E2,8.755457E2,9.0910474E2,3.135591E0,7.6559157E0,5.2799282E1,5.994281E0,1.2550398E1,3.0325397E2,1.9497226E2,4.5163565E2,2.5525803E2,1.1781287E3,7.368687E1,1.1418046E2,3.2115045E2,1.6090869E3,7.2618576E1,2.4496918E2,1.3491272E0,1.3586426E0,1.8052634E2,1.2978018E2,9.975853E0,2.8517403E1,3.072141E1,1.9427809E2,3.5978658E0,1.05790924E2,3.1848572E2,1.249496E0,6.2265686E1,1.08744774E2,8.6893684E1,4.5704633E2,1.3940668E2,6.091366E2,1.2404758E0,5.7881535E1,4.3470798E0,1.0302441E1,1.5335619E1,9.794873E1,2.4573328E2,5.771225E0,4.65053E2,2.6249E2,9.944761E1,7.377801E1,5.634767E0,6.3627876E1,6.5621114E0,2.6971642E1,2.1312756E1,3.8908062E1,5.7644268E1,1.5455537E2,1.6771349E3,4.2924545E2,7.745556E1,5.5494385E2,7.851067E2,9.043902E1,8.487896E2,6.031512E1],"tree_param":{"num_deleted":"0","num_feature":"104","num_nodes":"125","size_leaf_vector":"1"}},{"base_weights":[-7.748799E-3,1.8191831E-1,-2.6722926E-1,3.0164176E-1,-1.6746536E-1,5.5435758E-2,-3.9835995E-1,5.625154E-1,2.1495102E-1,1.7752262E-2,-3.001835E-1,5.52378E-1,-1.0127145E-3,-2.8805512E-1,-5.3055376E-1,3.1667128E-1,6.415414E-1,4.5234597E-1,1.138473E-1,8.970985E-2,-3.9654237E-1,-4.6277097E-1,-1.8259823E-1,8.362474E-1,-8.4063E-3,2.6550108E-1,-8.9336015E-2,-2.2605233E-1,-5.4024225E-1,-5.7514284E-2,-5.612587E-1,3.9691615E-1,-9.784171E-2,7.072764E-1,2.2857223E-1,4.9851725E-1,-1.3879204E-1,1.6909432E-1,-2.2116996E-1,-2.2002803E-1,2.0386869E-1,-5.313303E-1,-5.114991E-2,-6.395512E-1,-3.7440038E-1,-4.970722E-1,-8.524935E-2,1.0234538E0,1.7792939E-1,4.6185058E-1,-3.6817774E-1,-1.325446E-1,3.648656E-1,-4.258404E-1,-1.8557347E-2,9.3167824E-1,-2.413914E-1,-6.4797026E-1,-3.2891166E-1,9.40804E-2,-5.9266484E-1,-5.0939846E-1,-7.416306E-1,4.325625E-2,-5.3662896E-2,-1.7489875E-2,1.7211796E-1,4.762044E-2,8.105822E-2,4.4143412E-2,-1.3787756E-2,1.7678248E-2,5.772646E-2,-6.699758E-2,9.670413E-3,-4.766073E-3,2.4940655E-2,-5.3523786E-2,-1.2527927E-2,1.3781762E-1,-2.5332166E-2,6.568593E-2,1.18871005E-2,-3.3053495E-2,-7.6941654E-2,8.09499E-2,-2.6657138E-2,-6.553906E-2,8.841323E-2,1.2253477E-1,-3.8623083E-2,-5.809766E-2,-5.924833E-3,-3.892046E-2,1.9433473E-3,5.7777178E-2,1.7305736E-1,1.81429E-1,-1.5464746E-3,-7.304894E-2,7.2901234E-2,-6.718292E-2,4.527529E-2,8.719427E-2,-2.1803739E-2,3.0316064E-2,1.3373391E-1,-2.4495812E-2,-7.020318E-2,5.23609E-3,-3.6105793E-2,-3.7262894E-2,1.269471E-1,-5.1345646E-2,-1.862254E-2,-6.794378E-2,-8.073385E-3,1.7816909E-2,-3.941002E-2,5.7696423E-4,1.2016298E-1,-8.237711E-2,3.5183042E-2,-4.664829E-2,-7.270547E-2,-9.0605184E-2,-6.9939874E-2],"categories":[],"categories_nodes":[],"categories_segments":[],"categories_sizes":[],"default_left":[0,0,0,0,0,0,0,0,0,0,0,0,0,0,0,0,0,0,0,0,0,0,0,0,0,0,0,0,0,0,0,0,0,0,0,0,0,0,0,0,0,0,0,0,0,0,0,0,0,0,0,0,0,0,0,0,0,0,0,0,0,0,0,0,0,0,0,0,0,0,0,0,0,0,0,0,0,0,0,0,0,0,0,0,0,0,0,0,0,0,0,0,0,0,0,0,0,0,0,0,0,0,0,0,0,0,0,0,0,0,0,0,0,0,0,0,0,0,0,0,0,0,0,0,0,0,0],"id":7,"left_children":[1,3,5,7,9,11,13,15,17,19,21,23,25,27,29,31,33,35,37,39,41,43,45,47,49,51,53,55,57,59,61,63,65,67,69,71,73,75,77,79,81,83,85,87,89,91,93,95,97,99,101,103,105,107,109,111,113,115,117,119,121,123,125,-1,-1,-1,-1,-1,-1,-1,-1,-1,-1,-1,-1,-1,-1,-1,-1,-1,-1,-1,-1,-1,-1,-1,-1,-1,-1,-1,-1,-1,-1,-1,-1,-1,-1,-1,-1,-1,-1,-1,-1,-1,-1,-1,-1,-1,-1,-1,-1,-1,-1,-1,-1,-1,-1,-1,-1,-1,-1,-1,-1,-1,-1,-1,-1],"loss_changes":[6.6805493E2,3.2808105E2,2.4255664E2,1.3197589E2,4.921968E1,4.6489494E1,5.9280212E1,2.8089447E1,1.0521336E2,2.497844E1,2.2214378E1,2.6918102E1,3.507886E1,3.4654343E1,2.6878967E1,1.1887581E1,2.9728058E1,3.5813263E1,5.6991364E1,2.5280159E1,5.745617E0,7.3977203E0,2.0729618E1,1.3651291E1,9.949646E0,1.4719444E1,2.665031E1,3.1957588E1,9.762703E0,9.308067E0,1.5896118E1,1.0170166E1,8.511744E0,2.2276733E1,1.1969805E1,3.067978E1,1.2031077E1,4.6005806E1,1.3064911E1,1.0601697E1,2.0020582E1,4.0045967E0,6.874267E0,4.4776077E0,6.687481E0,5.8500404E0,1.6532219E1,2.6476097E1,8.275946E0,8.655022E0,8.606511E0,6.6164985E0,1.7422623E1,9.543152E0,2.2506464E1,1.0858223E1,2.6384727E1,5.1073074E0,5.0279713E0,8.770027E0,5.815013E0,1.2312408E1,2.0488129E0,0E0,0E0,0E0,0E0,0E0,0E0,0E0,0E0,0E0,0E0,0E0,0E0,0E0,0E0,0E0,0E0,0E0,0E0,0E0,0E0,0E0,0E0,0E0,0E0,0E0,0E0,0E0,0E0,0E0,0E0,0E0,0E0,0E0,0E0,0E0,0E0,0E0,0E0,0E0,0E0,0E0,0E0,0E0,0E0,0E0,0E0,0E0,0E0,0E0,0E0,0E0,0E0,0E0,0E0,0E0,0E0,0E0,0E0,0E0,0E0,0E0,0E0,0E0,0E0],"parents":[2147483647,0,0,1,1,2,2,3,3,4,4,5,5,6,6,7,7,8,8,9,9,10,10,11,11,12,12,13,13,14,14,15,15,16,16,17,17,18,18,19,19,20,20,21,21,22,22,23,23,24,24,25,25,26,26,27,27,28,28,29,29,30,30,31,31,32,32,33,33,34,34,35,35,36,36,37,37,38,38,39,39,40,40,41,41,42,42,43,43,44,44,45,45,46,46,47,47,48,48,49,49,50,50,51,51,52,52,53,53,54,54,55,55,56,56,57,57,58,58,59,59,60,60,61,61,62,62],"right_children":[2,4,6,8,10,12,14,16,18,20,22,24,26,28,30,32,34,36,38,40,42,44,46,48,50,52,54,56,58,60,62,64,66,68,70,72,74,76,78,80,82,84,86,88,90,92,94,96,98,100,102,104,106,108,110,112,114,116,118,120,122,124,126,-1,-1,-1,-1,-1,-1,-1,-1,-1,-1,-1,-1,-1,-1,-1,-1,-1,-1,-1,-1,-1,-1,-1,-1,-1,-1,-1,-1,-1,-1,-1,-1,-1,-1,-1,-1,-1,-1,-1,-1,-1,-1,-1,-1,-1,-1,-1,-1,-1,-1,-1,-1,-1,-1,-1,-1,-1,-1,-1,-1,-1,-1,-1,-1],"split_conditions":[5.6303155E-1,5.513813E-1,4.1184855E-1,2.6786894E-1,3.3143997E-1,2.6528794E-1,5.6737924E-1,1E0,2.3188819E-1,5.210064E-1,-1.711E4,-1.0244E4,1.8195911E-1,7.1598995E-1,3.0022234E-1,2.34E5,1.804E-1,5.632209E-1,5.094732E-1,-1.9921E4,-2.07E2,-4.152E3,-3.052E3,3.1329E-2,2.3531052E-1,9E0,2E0,1.2350817E-1,2E0,8.1E-2,5.754638E-1,1.69E-1,1E0,-1.875E3,-2.933E3,-2.423E3,3.31632E5,1E0,2.83419E5,4.05E4,7.685728E-2,2.3188819E-1,-2.6E1,1E0,-4.143E3,1.2E1,1.62945E4,1.885E-2,3.7E-2,-2.567E3,5.62491E5,1E0,-3.69E2,9.63E-2,5.754638E-1,1E0,9E0,3E0,3.86E-2,5E0,2.383E-1,7.3069537E-1,-4.409E3,4.325625E-2,-5.3662896E-2,-1.7489875E-2,1.7211796E-1,4.762044E-2,8.105822E-2,4.4143412E-2,-1.3787756E-2,1.7678248E-2,5.772646E-2,-6.699758E-2,9.670413E-3,-4.766073E-3,2.4940655E-2,-5.3523786E-2,-1.2527927E-2,1.3781762E-1,-2.5332166E-2,6.568593E-2,1.18871005E-2,-3.3053495E-2,-7.6941654E-2,8.09499E-2,-2.6657138E-2,-6.553906E-2,8.841323E-2,1.2253477E-1,-3.8623083E-2,-5.809766E-2,-5.924833E-3,-3.892046E-2,1.9433473E-3,5.7777178E-2,1.7305736E-1,1.81429E-1,-1.5464746E-3,-7.304894E-2,7.2901234E-2,-6.718292E-2,4.527529E-2,8.719427E-2,-2.1803739E-2,3.0316064E-2,1.3373391E-1,-2.4495812E-2,-7.020318E-2,5.23609E-3,-3.6105793E-2,-3.7262894E-2,1.269471E-1,-5.1345646E-2,-1.862254E-2,-6.794378E-2,-8.073385E-3,1.7816909E-2,-3.941002E-2,5.7696423E-4,1.2016298E-1,-8.237711E-2,3.5183042E-2,-4.664829E-2,-7.270547E-2,-9.0605184E-2,-6.9939874E-2],"split_indices":[28,29,29,29,28,27,29,79,28,27,6,6,29,28,27,1,37,27,27,6,77,9,7,5,29,10,19,27,103,41,27,31,85,7,8,7,2,79,2,1,28,28,77,23,9,10,3,5,40,9,2,10,8,72,27,79,10,18,31,103,55,28,7,0,0,0,0,0,0,0,0,0,0,0,0,0,0,0,0,0,0,0,0,0,0,0,0,0,0,0,0,0,0,0,0,0,0,0,0,0,0,0,0,0,0,0,0,0,0,0,0,0,0,0,0,0,0,0,0,0,0,0,0,0,0,0,0],"split_type":[0,0,0,0,0,0,0,0,0,0,0,0,0,0,0,0,0,0,0,0,0,0,0,0,0,0,0,0,0,0,0,0,0,0,0,0,0,0,0,0,0,0,0,0,0,0,0,0,0,0,0,0,0,0,0,0,0,0,0,0,0,0,0,0,0,0,0,0,0,0,0,0,0,0,0,0,0,0,0,0,0,0,0,0,0,0,0,0,0,0,0,0,0,0,0,0,0,0,0,0,0,0,0,0,0,0,0,0,0,0,0,0,0,0,0,0,0,0,0,0,0,0,0,0,0,0,0],"sum_hessian":[1.3572251E4,7.841101E3,5.7311494E3,5.8400317E3,2.0010696E3,1.6562634E3,4.074886E3,1.4552722E3,4.3847593E3,8.35682E2,1.1653876E3,1.6805055E2,1.4882129E3,2.2230845E3,1.8518015E3,3.5521906E2,1.1000531E3,1.3086145E3,3.0761448E3,7.126819E2,1.23000114E2,4.8786768E2,6.7751984E2,1.1124635E2,5.6804195E1,3.699351E2,1.1182777E3,1.7858992E3,4.3718527E2,1.1304865E2,1.7387529E3,2.976416E2,5.7577477E1,9.483807E2,1.5167249E2,1.2139543E3,9.466009E1,2.6411013E3,4.3504346E2,1.9168127E2,5.210006E2,8.8086426E1,3.4913685E1,1.6051985E2,3.2734784E2,1.5918513E2,5.183347E2,8.618359E1,2.506276E1,2.44985E1,3.23057E1,7.383292E1,2.9610217E2,1.9346532E2,9.2481244E2,2.2571308E1,1.7633279E3,2.8820404E2,1.4898125E2,8.873614E1,2.4312517E1,1.3534387E3,3.8531415E2,2.872114E2,1.0430191E1,5.610463E1,1.4728438E0,2.947347E2,6.5364594E2,9.5812614E1,5.5859867E1,2.3933963E2,9.7461475E2,2.850943E1,6.615066E1,7.1413245E2,1.926969E3,1.0068645E2,3.34357E2,3.0872757E0,1.8859401E2,8.125081E1,4.3974982E2,4.908109E1,3.900534E1,6.4373856E0,2.8476301E1,1.5943234E2,1.0875075E0,1.6500276E0,3.256978E2,1.3331058E2,2.5874557E1,1.3208809E2,3.862466E2,5.3978935E1,3.220466E1,1.7631297E0,2.329963E1,4.1669936E0,2.0331507E1,2.3715332E1,8.590365E0,5.0695705E0,6.876334E1,2.7966852E2,1.6433664E1,1.1804355E2,7.542177E1,7.6687103E2,1.5794138E2,4.6218805E0,1.7949427E1,2.9586887E2,1.4674591E3,2.7286877E2,1.5335266E1,1.6773373E1,1.3220787E2,8.311421E1,5.621926E0,1.963572E1,4.6767983E0,1.1331561E3,2.2028262E2,7.4563255E1,3.107509E2],"tree_param":{"num_deleted":"0","num_feature":"104","num_nodes":"127","size_leaf_vector":"1"}},{"base_weights":[-7.6884828E-3,1.5768905E-1,-2.5264797E-1,3.9959463E-1,2.4761438E-2,3.0327562E-2,-3.8515273E-1,7.971086E-2,4.5344964E-1,8.604537E-2,-3.4227225E-1,8.833043E-2,-4.0451944E-1,5.0076548E-2,-4.2076075E-1,3.2226673E-1,-6.681608E-2,2.2833362E-1,5.3410906E-1,-2.0306051E-1,1.700416E-1,1.1770653E0,-3.5505775E-1,1.16603956E-1,-6.6119945E-1,-3.1901303E-1,-8.1075555E-1,1.1678367E0,1.1284008E-3,-3.2924163E-1,-5.6663525E-1,6.865826E-1,1.487499E-1,3.5158765E-1,-1.8699592E-1,2.5621736E-1,-5.4720324E-1,7.3631436E-1,3.3813766E-1,1.7220397E-2,-3.0116758E-1,-7.275288E-2,3.0239204E-1,1.9067881E0,-1.701844E-1,-2.4050629E-1,-5.458546E-1,-2.2760566E-1,1.7810522E-1,-7.1787125E-1,5.0090843E-1,-3.771501E-1,4.3938726E-1,-8.843516E-1,2.215439E-1,1.8900679E-1,1.9067652E0,-4.1001123E-1,8.943489E-2,-2.5561094E-1,-5.2511483E-1,-5.254182E-1,-7.626005E-1,-6.1440285E-2,8.9115225E-2,-1.440111E-2,3.6676887E-2,1.251416E-1,1.07013555E-2,-1.1486007E-2,-6.8342835E-2,4.338364E-2,1.1902688E-2,1.0455694E-1,-7.332577E-2,6.17322E-2,1.1340038E-1,4.1053604E-2,-7.5832003E-4,-1.6710438E-3,1.5198092E-1,-4.2602714E-2,-1.0585153E-2,1.4601019E-2,-2.0982092E-2,7.824091E-2,2.3989987E-2,-1.3316596E-2,2.6607418E-1,4.075848E-2,-6.2252134E-2,-1.7767413E-2,-6.5147914E-2,-8.622179E-2,-4.7504958E-2,-2.5219232E-2,1.2353225E-1,3.5963725E-2,4.4378955E-3,-7.6394044E-2,4.9462184E-2,-5.8932103E-2,1.4328817E-1,1.6173199E-2,-4.3794584E-2,1.4012839E-1,-2.1741984E-2,-9.3571745E-2,-1.41319055E-2,9.257917E-2,-5.63819E-2,-7.164448E-2,7.2503716E-2,-1.4244618E-2,2.360789E-1,2.104346E-1,-5.3823806E-2,2.0578053E-2,-3.5220597E-2,-1.9577414E-2,-4.8133716E-2,-2.0881256E-2,-5.7065424E-2,-7.546087E-2,-4.7853425E-2,-7.737689E-2,4.693146E-2],"categories":[],"categories_nodes":[],"categories_segments":[],"categories_sizes":[],"default_left":[0,0,0,0,0,0,0,0,0,0,0,0,0,0,0,0,0,0,0,0,0,0,0,0,0,0,0,0,0,0,0,0,0,0,0,0,0,0,0,0,0,0,0,0,0,0,0,0,0,0,0,0,0,0,0,0,0,0,0,0,0,0,0,0,0,0,0,0,0,0,0,0,0,0,0,0,0,0,0,0,0,0,0,0,0,0,0,0,0,0,0,0,0,0,0,0,0,0,0,0,0,0,0,0,0,0,0,0,0,0,0,0,0,0,0,0,0,0,0,0,0,0,0,0,0,0,0],"id":8,"left_children":[1,3,5,7,9,11,13,15,17,19,21,23,25,27,29,31,33,35,37,39,41,43,45,47,49,51,53,55,57,59,61,63,65,67,69,71,73,75,77,79,81,83,85,87,89,91,93,95,97,99,101,103,105,107,109,111,113,115,117,119,121,123,125,-1,-1,-1,-1,-1,-1,-1,-1,-1,-1,-1,-1,-1,-1,-1,-1,-1,-1,-1,-1,-1,-1,-1,-1,-1,-1,-1,-1,-1,-1,-1,-1,-1,-1,-1,-1,-1,-1,-1,-1,-1,-1,-1,-1,-1,-1,-1,-1,-1,-1,-1,-1,-1,-1,-1,-1,-1,-1,-1,-1,-1,-1,-1,-1],"loss_changes":[5.483097E2,2.5980945E2,2.0454797E2,4.932611E1,1.1734606E2,4.3938145E1,5.7599976E1,1.4739193E1,4.4405243E1,1.085874E2,1.4918175E1,3.2640163E1,6.8632317E0,1.5420583E1,4.566443E1,9.767086E0,1.3088345E1,1.4166431E1,7.1262085E1,2.1763763E1,1.11345345E2,6.6763144E0,1.6063972E1,3.140456E1,4.0480385E0,7.7064953E0,2.855194E0,8.192268E0,9.8774185E0,3.0337204E1,1.0282471E1,1.3879044E1,6.884261E0,1.2660498E1,7.1497164E0,1.5221645E1,7.5321503E0,4.129059E1,2.298758E1,1.5890899E1,1.694387E1,3.6703503E1,6.7076126E1,6.926096E0,1.0869085E0,1.1886431E1,5.799637E0,8.405536E0,3.051178E1,3.3837414E0,4.088921E0,5.2926617E0,8.289698E0,1.1224384E0,2.2526336E0,3.527006E0,6.5029697E0,1.6641352E1,1.1579453E1,2.0672592E1,8.181778E0,1.1416016E1,3.4950104E0,0E0,0E0,0E0,0E0,0E0,0E0,0E0,0E0,0E0,0E0,0E0,0E0,0E0,0E0,0E0,0E0,0E0,0E0,0E0,0E0,0E0,0E0,0E0,0E0,0E0,0E0,0E0,0E0,0E0,0E0,0E0,0E0,0E0,0E0,0E0,0E0,0E0,0E0,0E0,0E0,0E0,0E0,0E0,0E0,0E0,0E0,0E0,0E0,0E0,0E0,0E0,0E0,0E0,0E0,0E0,0E0,0E0,0E0,0E0,0E0,0E0,0E0,0E0,0E0],"parents":[2147483647,0,0,1,1,2,2,3,3,4,4,5,5,6,6,7,7,8,8,9,9,10,10,11,11,12,12,13,13,14,14,15,15,16,16,17,17,18,18,19,19,20,20,21,21,22,22,23,23,24,24,25,25,26,26,27,27,28,28,29,29,30,30,31,31,32,32,33,33,34,34,35,35,36,36,37,37,38,38,39,39,40,40,41,41,42,42,43,43,44,44,45,45,46,46,47,47,48,48,49,49,50,50,51,51,52,52,53,53,54,54,55,55,56,56,57,57,58,58,59,59,60,60,61,61,62,62],"right_children":[2,4,6,8,10,12,14,16,18,20,22,24,26,28,30,32,34,36,38,40,42,44,46,48,50,52,54,56,58,60,62,64,66,68,70,72,74,76,78,80,82,84,86,88,90,92,94,96,98,100,102,104,106,108,110,112,114,116,118,120,122,124,126,-1,-1,-1,-1,-1,-1,-1,-1,-1,-1,-1,-1,-1,-1,-1,-1,-1,-1,-1,-1,-1,-1,-1,-1,-1,-1,-1,-1,-1,-1,-1,-1,-1,-1,-1,-1,-1,-1,-1,-1,-1,-1,-1,-1,-1,-1,-1,-1,-1,-1,-1,-1,-1,-1,-1,-1,-1,-1,-1,-1,-1,-1,-1,-1],"split_conditions":[5.675132E-1,4.1534716E-1,4.311918E-1,9E0,5.094732E-1,6.360503E-1,3.0022234E-1,2.1035023E-1,1.62945E4,-1.9623E4,1.02210855E-2,7.2508E-2,2.069E-1,7.9108156E-2,6.127042E-1,-5.023E3,2.1935527E-1,4.275E5,4.545E5,2.4993299E-1,-1.875E3,-2.429E3,6.9943875E-1,-2.0032E4,1.6E1,8.15E-2,1.5E1,-1.035E3,9E0,7.0144266E-1,7.3069537E-1,-1.9327E4,-6.25E2,5.99E-2,1.83E-2,2.9666346E-1,2.4876E5,5.084955E5,9.841E-1,-1.44E2,-3.994E3,2.9666346E-1,9.5289834E-2,-1.481E3,-2.334E3,7.38E-2,2.4876E5,3E0,2.525987E-1,1.851E-1,2E0,2.82E-2,6.467985E-1,3E0,-1.8128E4,-1.96E3,1.1E1,2.19E-2,8.25E-2,5.2712893E-1,1E1,-4.409E3,5.172E-1,-6.1440285E-2,8.9115225E-2,-1.440111E-2,3.6676887E-2,1.251416E-1,1.07013555E-2,-1.1486007E-2,-6.8342835E-2,4.338364E-2,1.1902688E-2,1.0455694E-1,-7.332577E-2,6.17322E-2,1.1340038E-1,4.1053604E-2,-7.5832003E-4,-1.6710438E-3,1.5198092E-1,-4.2602714E-2,-1.0585153E-2,1.4601019E-2,-2.0982092E-2,7.824091E-2,2.3989987E-2,-1.3316596E-2,2.6607418E-1,4.075848E-2,-6.2252134E-2,-1.7767413E-2,-6.5147914E-2,-8.622179E-2,-4.7504958E-2,-2.5219232E-2,1.2353225E-1,3.5963725E-2,4.4378955E-3,-7.6394044E-2,4.9462184E-2,-5.8932103E-2,1.4328817E-1,1.6173199E-2,-4.3794584E-2,1.4012839E-1,-2.1741984E-2,-9.3571745E-2,-1.41319055E-2,9.257917E-2,-5.63819E-2,-7.164448E-2,7.2503716E-2,-1.4244618E-2,2.360789E-1,2.104346E-1,-5.3823806E-2,2.0578053E-2,-3.5220597E-2,-1.9577414E-2,-4.8133716E-2,-2.0881256E-2,-5.7065424E-2,-7.546087E-2,-4.7853425E-2,-7.737689E-2,4.693146E-2],"split_indices":[28,29,29,10,27,27,27,29,3,6,28,5,36,27,29,8,28,4,4,28,7,9,27,6,10,53,10,77,10,28,28,6,77,41,57,28,2,2,60,8,9,28,28,77,7,67,2,102,29,39,103,69,28,19,6,7,20,58,41,27,20,7,50,0,0,0,0,0,0,0,0,0,0,0,0,0,0,0,0,0,0,0,0,0,0,0,0,0,0,0,0,0,0,0,0,0,0,0,0,0,0,0,0,0,0,0,0,0,0,0,0,0,0,0,0,0,0,0,0,0,0,0,0,0,0,0,0],"split_type":[0,0,0,0,0,0,0,0,0,0,0,0,0,0,0,0,0,0,0,0,0,0,0,0,0,0,0,0,0,0,0,0,0,0,0,0,0,0,0,0,0,0,0,0,0,0,0,0,0,0,0,0,0,0,0,0,0,0,0,0,0,0,0,0,0,0,0,0,0,0,0,0,0,0,0,0,0,0,0,0,0,0,0,0,0,0,0,0,0,0,0,0,0,0,0,0,0,0,0,0,0,0,0,0,0,0,0,0,0,0,0,0,0,0,0,0,0,0,0,0,0,0,0,0,0,0,0],"sum_hessian":[1.3532921E4,8.0789805E3,5.453941E3,2.8643481E3,5.214632E3,1.7396139E3,3.714327E3,4.131041E2,2.4512441E3,4.4691753E3,7.454565E2,1.5355841E3,2.0402983E2,2.8087274E2,3.433454E3,1.5512158E2,2.579825E2,6.4761554E2,1.8036287E3,1.0058235E3,3.463352E3,5.4608755E0,7.399956E2,1.4805786E3,5.5005486E1,1.7002705E2,3.4002777E1,1.0824739E1,2.70048E2,2.1118027E3,1.3216514E3,4.9091732E1,1.06029854E2,5.7136703E1,2.0084581E2,6.257856E2,2.182994E1,8.863383E2,9.172903E2,3.1018533E2,6.956381E2,1.2220231E3,2.2413289E3,3.2728524E0,2.188023E0,4.637987E2,2.7619687E2,2.2402985E2,1.2565487E3,5.281229E1,2.1931965E0,1.5838812E2,1.1638931E1,3.1873713E1,2.1290643E0,5.196682E0,5.628057E0,4.7102753E1,2.2294525E2,1.536516E3,5.752867E2,1.095019E3,2.2663232E2,6.3982005E0,4.269353E1,4.5402184E1,6.0627666E1,1.1331081E1,4.5805622E1,1.7643907E2,2.4406729E1,2.7176813E2,3.540175E2,1.800086E0,2.0029856E1,6.8417804E2,2.0216026E2,7.583042E2,1.5898611E2,3.0430258E2,5.882755E0,4.2363812E2,2.72E2,4.707047E2,7.513184E2,2.5685394E2,1.984475E3,1.1053933E0,2.1674592E0,1.0042421E0,1.1837811E0,4.0353586E2,6.0262848E1,4.846657E1,2.2773032E2,2.2114085E2,2.888989E0,5.322863E2,7.2426245E2,5.1235516E1,1.5767742E0,1.1802242E0,1.0129724E0,1.5889175E1,1.4249895E2,4.262705E0,7.3762264E0,2.9570206E1,2.3035083E0,1.028228E0,1.1008364E0,1.8072824E0,3.3893995E0,1.1452577E0,4.4827995E0,1.5377814E0,4.556497E1,1.768817E2,4.6063564E1,1.2160309E3,3.204851E2,7.310525E1,5.0218143E2,1.8339645E2,9.116226E2,2.2496472E2,1.6676054E0],"tree_param":{"num_deleted":"0","num_feature":"104","num_nodes":"127","size_leaf_vector":"1"}},{"base_weights":[-7.550131E-3,1.13605104E-1,-2.9166675E-1,2.6849627E-1,-7.074665E-2,-4.002489E-2,-4.0969414E-1,6.384565E-1,2.2892556E-1,2.0809436E-1,-1.5734762E-1,9.5789593E-1,-5.9306808E-2,-3.53908E-1,-6.499651E-1,5.609425E-1,1.084007E0,6.7715967E-1,1.9507736E-1,-9.2612386E-2,2.7693847E-1,-1.0991617E-1,-4.822997E-1,4.0473518E-1,1.7654693E0,-2.5857913E-1,2.2072233E-2,-2.4291232E-1,-4.700758E-1,-4.956672E-1,-7.213716E-1,5.970781E-1,-3.9555302E-1,1.2764082E0,1.307699E-1,1.4076929E0,4.6611407E-1,-1.2530318E-3,2.6224476E-1,-1.7038451E-1,7.7665895E-1,7.2913475E-2,3.918075E-1,-3.7314147E-1,-5.6552332E-2,-5.337246E-1,-1.3311884E-1,-2.9225042E-1,1.3199904E0,2.4494288E0,-2.5972273E-2,-6.0627383E-1,-1.6958818E-1,3.2663748E-1,-1.4421192E-1,-4.4320586E-1,-1.6339585E-1,-5.9851897E-1,-3.6974207E-1,-5.600383E-1,6.875223E-2,-9.0293986E-1,-6.748411E-1,5.532139E-2,1.4077175E-1,2.8826927E-3,-1.02498494E-1,1.35184E-1,-5.297775E-2,-2.1273479E-2,1.9608097E-1,1.7701928E-1,8.909502E-2,1.1503742E-1,3.5643917E-2,-3.6606368E-2,3.975434E-3,3.959816E-2,8.187665E-3,-6.0699552E-2,-7.6387287E-3,1.1313554E-1,-5.858755E-2,8.245528E-2,2.6854493E-3,9.558672E-3,4.971273E-2,7.8912534E-2,-3.9938968E-2,-3.376188E-2,4.6787155E-4,-4.487614E-2,-7.644372E-2,5.7936043E-2,-3.8071364E-2,3.7348203E-2,-7.69557E-2,-4.731828E-2,2.3084758E-1,3.1531987E-1,-2.4272567E-2,8.827044E-2,-7.244986E-2,9.901296E-2,-6.514919E-2,-1.9752236E-2,7.815251E-2,1.2352802E-2,1.1195531E-1,4.2517586E-3,-2.5307406E-2,-5.865344E-2,-3.2451395E-2,-7.463624E-3,-3.5500653E-2,-7.980332E-2,-5.3117897E-2,-6.1480463E-2,-2.6588446E-2,-1.1335443E-2,-6.29557E-2,-3.353787E-2,1.8634968E-1,-9.5385075E-2,-2.5687465E-2,-6.2250048E-2,-8.6217225E-2],"categories":[],"categories_nodes":[],"categories_segments":[],"categories_sizes":[],"default_left":[0,0,0,0,0,0,0,0,0,0,0,0,0,0,0,0,0,0,0,0,0,0,0,0,0,0,0,0,0,0,0,0,0,0,0,0,0,0,0,0,0,0,0,0,0,0,0,0,0,0,0,0,0,0,0,0,0,0,0,0,0,0,0,0,0,0,0,0,0,0,0,0,0,0,0,0,0,0,0,0,0,0,0,0,0,0,0,0,0,0,0,0,0,0,0,0,0,0,0,0,0,0,0,0,0,0,0,0,0,0,0,0,0,0,0,0,0,0,0,0,0,0,0,0,0,0,0],"id":9,"left_children":[1,3,5,7,9,11,13,15,17,19,21,23,25,27,29,31,33,35,37,39,41,43,45,47,49,51,53,55,57,59,61,63,65,67,69,71,73,75,77,79,81,83,85,87,89,91,93,95,97,99,101,103,105,107,109,111,113,115,117,119,121,123,125,-1,-1,-1,-1,-1,-1,-1,-1,-1,-1,-1,-1,-1,-1,-1,-1,-1,-1,-1,-1,-1,-1,-1,-1,-1,-1,-1,-1,-1,-1,-1,-1,-1,-1,-1,-1,-1,-1,-1,-1,-1,-1,-1,-1,-1,-1,-1,-1,-1,-1,-1,-1,-1,-1,-1,-1,-1,-1,-1,-1,-1,-1,-1,-1],"loss_changes":[4.6457013E2,2.7018994E2,1.1981564E2,7.512833E1,1.0437003E2,2.486509E1,3.658185E1,1.653128E1,7.0365326E1,2.1231556E1,5.076983E1,1.022908E1,2.0532532E1,2.8653503E1,5.331009E0,1.4918701E1,1.3124512E1,4.9580948E1,5.6991013E1,1.308386E1,1.9511806E1,4.0415283E1,7.465439E0,1.0488188E1,1.1901396E1,1.12563E1,4.5610718E1,1.8131775E1,1.3813705E1,6.0892982E0,2.3540955E0,1.3790512E1,4.3210163E0,8.916092E0,8.7684765E0,1.20108795E1,1.8674458E1,1.6509882E1,7.764227E1,7.2039604E0,8.35305E0,1.0417845E1,1.6587479E1,1.51128845E1,4.1213585E1,6.8214264E0,9.959769E0,3.4043021E0,1.3548804E1,1.4032467E1,2.961986E0,6.017502E0,7.957262E0,5.1080738E1,1.1854598E1,5.325531E0,1.3915539E1,5.9714355E0,1.54652405E1,4.5741615E0,1.3636984E1,2.0111847E0,2.2397766E0,0E0,0E0,0E0,0E0,0E0,0E0,0E0,0E0,0E0,0E0,0E0,0E0,0E0,0E0,0E0,0E0,0E0,0E0,0E0,0E0,0E0,0E0,0E0,0E0,0E0,0E0,0E0,0E0,0E0,0E0,0E0,0E0,0E0,0E0,0E0,0E0,0E0,0E0,0E0,0E0,0E0,0E0,0E0,0E0,0E0,0E0,0E0,0E0,0E0,0E0,0E0,0E0,0E0,0E0,0E0,0E0,0E0,0E0,0E0,0E0,0E0,0E0,0E0,0E0],"parents":[2147483647,0,0,1,1,2,2,3,3,4,4,5,5,6,6,7,7,8,8,9,9,10,10,11,11,12,12,13,13,14,14,15,15,16,16,17,17,18,18,19,19,20,20,21,21,22,22,23,23,24,24,25,25,26,26,27,27,28,28,29,29,30,30,31,31,32,32,33,33,34,34,35,35,36,36,37,37,38,38,39,39,40,40,41,41,42,42,43,43,44,44,45,45,46,46,47,47,48,48,49,49,50,50,51,51,52,52,53,53,54,54,55,55,56,56,57,57,58,58,59,59,60,60,61,61,62,62],"right_children":[2,4,6,8,10,12,14,16,18,20,22,24,26,28,30,32,34,36,38,40,42,44,46,48,50,52,54,56,58,60,62,64,66,68,70,72,74,76,78,80,82,84,86,88,90,92,94,96,98,100,102,104,106,108,110,112,114,116,118,120,122,124,126,-1,-1,-1,-1,-1,-1,-1,-1,-1,-1,-1,-1,-1,-1,-1,-1,-1,-1,-1,-1,-1,-1,-1,-1,-1,-1,-1,-1,-1,-1,-1,-1,-1,-1,-1,-1,-1,-1,-1,-1,-1,-1,-1,-1,-1,-1,-1,-1,-1,-1,-1,-1,-1,-1,-1,-1,-1,-1,-1,-1,-1,-1,-1,-1],"split_conditions":[5.3707E-1,5.1693183E-1,4.275595E-1,6.6888645E-2,2.6786894E-1,1.5086418E-1,5.754638E-1,1E0,1.9268435E-1,9E0,6.237569E-1,2.84175E4,2.83419E5,6.690567E-1,-7.152E3,1.125E6,1E0,-1.2061E4,1E0,1.087E-1,-1.167E3,9E0,-9.39E2,1E0,-1.0044E4,-4.508E3,4.545E5,1E0,-1.7743E4,-7.547E3,-4.54E3,-2.95E2,-1.3448E4,1.98E-2,-8.441E3,1.885E-2,7.9108156E-2,-1.733E3,4.545E5,1.62945E4,3E0,2.82E-2,1E0,1.3816383E-1,-2.048E4,2E-3,3.825018E-1,-2.958E3,-1.201E3,4.0635E4,-7.27E2,4.05E4,-1.72E2,5.06889E5,6.2461466E-1,1.95165E4,6.795E5,2.636865E5,-3.052E3,6.237569E-1,-2.24E2,1.644E-1,8.46E-2,5.532139E-2,1.4077175E-1,2.8826927E-3,-1.02498494E-1,1.35184E-1,-5.297775E-2,-2.1273479E-2,1.9608097E-1,1.7701928E-1,8.909502E-2,1.1503742E-1,3.5643917E-2,-3.6606368E-2,3.975434E-3,3.959816E-2,8.187665E-3,-6.0699552E-2,-7.6387287E-3,1.1313554E-1,-5.858755E-2,8.245528E-2,2.6854493E-3,9.558672E-3,4.971273E-2,7.8912534E-2,-3.9938968E-2,-3.376188E-2,4.6787155E-4,-4.487614E-2,-7.644372E-2,5.7936043E-2,-3.8071364E-2,3.7348203E-2,-7.69557E-2,-4.731828E-2,2.3084758E-1,3.1531987E-1,-2.4272567E-2,8.827044E-2,-7.244986E-2,9.901296E-2,-6.514919E-2,-1.9752236E-2,7.815251E-2,1.2352802E-2,1.1195531E-1,4.2517586E-3,-2.5307406E-2,-5.865344E-2,-3.2451395E-2,-7.463624E-3,-3.5500653E-2,-7.980332E-2,-5.3117897E-2,-6.1480463E-2,-2.6588446E-2,-1.1335443E-2,-6.29557E-2,-3.353787E-2,1.8634968E-1,-9.5385075E-2,-2.5687465E-2,-6.2250048E-2,-8.6217225E-2],"split_indices":[29,28,28,28,29,27,27,24,27,10,27,3,2,29,8,4,102,6,79,53,77,10,8,25,6,9,4,79,6,8,9,9,6,48,6,5,27,77,4,3,73,68,79,27,6,35,29,9,7,3,77,1,8,2,29,3,4,2,7,27,77,54,31,0,0,0,0,0,0,0,0,0,0,0,0,0,0,0,0,0,0,0,0,0,0,0,0,0,0,0,0,0,0,0,0,0,0,0,0,0,0,0,0,0,0,0,0,0,0,0,0,0,0,0,0,0,0,0,0,0,0,0,0,0,0,0,0],"split_type":[0,0,0,0,0,0,0,0,0,0,0,0,0,0,0,0,0,0,0,0,0,0,0,0,0,0,0,0,0,0,0,0,0,0,0,0,0,0,0,0,0,0,0,0,0,0,0,0,0,0,0,0,0,0,0,0,0,0,0,0,0,0,0,0,0,0,0,0,0,0,0,0,0,0,0,0,0,0,0,0,0,0,0,0,0,0,0,0,0,0,0,0,0,0,0,0,0,0,0,0,0,0,0,0,0,0,0,0,0,0,0,0,0,0,0,0,0,0,0,0,0,0,0,0,0,0,0],"sum_hessian":[1.3494268E4,9.460603E3,4.0336646E3,5.1408433E3,4.31976E3,1.2882893E3,2.7453752E3,4.9526883E2,4.645574E3,1.02334686E3,3.2964128E3,2.3497847E1,1.2647915E3,2.2300703E3,5.153049E2,4.2379813E2,7.1470726E1,3.2484283E2,4.3207314E3,1.9057628E2,8.3277057E2,2.877708E3,4.1870483E2,1.4836509E1,8.661337E0,3.661137E2,8.986778E2,1.1420034E3,1.0880669E3,1.6554036E2,3.4976456E2,4.0873233E2,1.5065801E1,5.9185673E1,1.2285049E1,7.153943E1,2.5330339E2,1.1016344E3,3.2190972E3,1.7566394E2,1.4912343E1,3.0056174E2,5.3220886E2,4.8405255E2,2.3936555E3,3.6449588E2,5.4208954E1,8.80898E0,6.0275292E0,6.002378E0,2.6589594E0,7.3424736E1,2.9268896E2,3.1703455E2,5.8164325E2,3.2323505E2,8.187684E2,4.7501138E2,6.1305554E2,1.4860048E2,1.6939882E1,6.759487E1,2.8216968E2,3.8934695E2,1.9385353E1,9.568597E0,5.497204E0,5.705446E1,2.1312175E0,1.108762E1,1.1974299E0,4.0619083E1,3.0920345E1,3.3680744E1,2.1962265E2,1.10517715E2,9.911167E2,1.8478121E3,1.3712849E3,3.015205E1,1.4551189E2,1.19668E1,2.9455426E0,1.6378466E1,2.8418326E2,1.4009302E2,3.9211584E2,1.0048377E1,4.7400418E2,4.273757E2,1.9662798E3,2.6854532E2,9.5950584E1,1.3634459E1,4.0574493E1,3.7692573E0,5.039722E0,2.327182E0,3.700347E0,4.622684E0,1.3796939E0,1.0410478E0,1.6179116E0,1.4468689E0,7.197787E1,2.851077E2,7.5812817E0,2.5330495E2,6.3729588E1,2.1443526E2,3.6720798E2,1.4463582E2,1.7859921E2,5.605123E2,2.5825604E2,1.17129745E2,3.5788165E2,1.810143E2,4.3204126E2,2.0366756E1,1.2823372E2,1.4490192E1,2.4496903E0,6.221578E1,5.379092E0,2.2392711E2,5.824257E1],"tree_param":{"num_deleted":"0","num_feature":"104","num_nodes":"127","size_leaf_vector":"1"}},{"base_weights":[-7.3428797E-3,1.0115814E-1,-2.7030128E-1,1.9353089E-1,-1.51443E-1,-2.3096617E-2,-3.7756044E-1,3.1727785E-1,9.1513604E-2,3.0299395E-1,-1.969747E-1,-4.1110545E-1,2.2085037E-2,-3.232148E-1,-6.204517E-1,5.8475876E-1,2.673275E-1,3.0041182E-1,2.036089E-2,1.3224716E0,2.3365846E-1,1.2626647E-2,-2.8337264E-1,-6.07281E-1,-1.5420191E-1,-2.364628E-1,1.05035365E-1,-4.96545E-1,-2.5181055E-1,-4.7051194E-1,-6.910786E-1,6.784005E-1,3.4254688E-1,2.2222613E-1,5.575146E-1,2.5913054E-1,7.86632E-1,-1.4545767E-1,1.0426736E-1,-6.369959E-2,1.5641586E0,4.2555678E-1,-1.0380036E-1,-3.9825162E-1,7.305832E-2,-5.611175E-1,-2.3057146E-1,5.6689173E-2,-6.403343E-1,1.2323548E0,-2.5554615E-1,-2.581601E-1,1.9487648E-1,1.7677912E-1,-3.511936E-1,3.4795582E-2,-5.2759314E-1,-4.3016988E-1,-1.550321E-1,-5.3276795E-1,5.8336943E-2,-8.9138114E-1,-6.4088994E-1,3.6142826E-2,8.189166E-2,-2.3978835E-2,5.0886698E-2,2.5973951E-2,-1.8458853E-2,-1.3072413E-2,6.496491E-2,5.316748E-2,1.8719755E-2,-3.9885715E-3,9.955845E-2,-5.882017E-2,-1.1186717E-2,-1.1216817E-2,1.9775776E-2,1.9358207E-1,1.673207E-2,7.0304744E-2,2.9756385E-3,1.4066105E-1,-1.9753104E-2,-8.4494606E-2,-2.9151995E-2,1.232801E-2,-4.622544E-2,1.07975E-2,-5.9811022E-2,-4.7991764E-2,-1.5686417E-2,2.1548932E-2,-6.79975E-2,-2.8740933E-2,2.4488245E-1,-1.6410562E-3,-5.3195577E-2,9.633517E-2,-2.830728E-2,-2.6914898E-2,2.4547664E-2,1.3812374E-1,-4.073892E-2,-5.9502102E-2,6.67528E-2,2.0911924E-3,-5.435291E-2,-6.281426E-2,-3.4095425E-2,-4.720966E-2,-7.923539E-3,-1.3503124E-2,-5.9795644E-2,-3.206356E-2,1.5228172E-1,-9.443035E-2,-2.5402253E-2,-6.49616E-2,5.4630935E-2],"categories":[],"categories_nodes":[],"categories_segments":[],"categories_sizes":[],"default_left":[0,0,0,0,0,0,0,0,0,0,0,0,0,0,0,0,0,0,0,0,0,0,0,0,0,0,0,0,0,0,0,0,0,0,0,0,0,0,0,0,0,0,0,0,0,0,0,0,0,0,0,0,0,0,0,0,0,0,0,0,0,0,0,0,0,0,0,0,0,0,0,0,0,0,0,0,0,0,0,0,0,0,0,0,0,0,0,0,0,0,0,0,0,0,0,0,0,0,0,0,0,0,0,0,0,0,0,0,0,0,0,0,0,0,0,0,0,0,0,0,0],"id":10,"left_children":[1,3,5,7,9,11,13,15,17,19,21,23,25,27,29,31,33,35,37,39,41,43,45,47,49,51,53,55,57,59,61,63,65,67,69,71,73,75,77,-1,79,81,83,85,87,89,91,-1,93,95,97,99,-1,101,103,105,107,109,111,113,115,117,119,-1,-1,-1,-1,-1,-1,-1,-1,-1,-1,-1,-1,-1,-1,-1,-1,-1,-1,-1,-1,-1,-1,-1,-1,-1,-1,-1,-1,-1,-1,-1,-1,-1,-1,-1,-1,-1,-1,-1,-1,-1,-1,-1,-1,-1,-1,-1,-1,-1,-1,-1,-1,-1,-1,-1,-1,-1,-1],"loss_changes":[3.8403018E2,2.2236111E2,1.04236725E2,8.805701E1,5.286321E1,2.0883814E1,3.599182E1,4.1964172E1,5.6861347E1,1.6146664E1,4.201982E1,6.1680756E0,2.291902E1,2.7630676E1,4.972046E0,1.1000153E1,3.4667618E1,1.9305649E1,3.9736813E1,7.9153557E0,1.4238399E1,1.686839E1,2.396547E1,3.0839329E0,8.062649E0,1.2811816E1,2.65384E1,1.0795624E1,2.738456E1,5.4077835E0,2.825714E0,1.5566208E1,1.3691301E1,3.5184746E1,2.2717415E1,1.749414E1,1.3091644E1,1.4206377E1,3.839279E1,0E0,6.578354E0,1.53473625E1,1.1640793E1,3.906867E0,1.5974401E1,6.543358E0,2.5328339E1,0E0,2.4758034E0,7.964222E0,3.442258E0,8.121937E0,0E0,2.1498966E1,1.1296229E1,1.5143561E1,5.4069214E0,9.6560135E0,2.477617E1,3.7100449E0,1.05342655E1,1.9575233E0,3.1909637E0,0E0,0E0,0E0,0E0,0E0,0E0,0E0,0E0,0E0,0E0,0E0,0E0,0E0,0E0,0E0,0E0,0E0,0E0,0E0,0E0,0E0,0E0,0E0,0E0,0E0,0E0,0E0,0E0,0E0,0E0,0E0,0E0,0E0,0E0,0E0,0E0,0E0,0E0,0E0,0E0,0E0,0E0,0E0,0E0,0E0,0E0,0E0,0E0,0E0,0E0,0E0,0E0,0E0,0E0,0E0,0E0,0E0,0E0],"parents":[2147483647,0,0,1,1,2,2,3,3,4,4,5,5,6,6,7,7,8,8,9,9,10,10,11,11,12,12,13,13,14,14,15,15,16,16,17,17,18,18,19,19,20,20,21,21,22,22,23,23,24,24,25,25,26,26,27,27,28,28,29,29,30,30,31,31,32,32,33,33,34,34,35,35,36,36,37,37,38,38,40,40,41,41,42,42,43,43,44,44,45,45,46,46,48,48,49,49,50,50,51,51,53,53,54,54,55,55,56,56,57,57,58,58,59,59,60,60,61,61,62,62],"right_children":[2,4,6,8,10,12,14,16,18,20,22,24,26,28,30,32,34,36,38,40,42,44,46,48,50,52,54,56,58,60,62,64,66,68,70,72,74,76,78,-1,80,82,84,86,88,90,92,-1,94,96,98,100,-1,102,104,106,108,110,112,114,116,118,120,-1,-1,-1,-1,-1,-1,-1,-1,-1,-1,-1,-1,-1,-1,-1,-1,-1,-1,-1,-1,-1,-1,-1,-1,-1,-1,-1,-1,-1,-1,-1,-1,-1,-1,-1,-1,-1,-1,-1,-1,-1,-1,-1,-1,-1,-1,-1,-1,-1,-1,-1,-1,-1,-1,-1,-1,-1,-1],"split_conditions":[5.3707E-1,6.119016E-1,4.055504E-1,3.5281038E-1,2.798534E-1,-4.603E3,5.754638E-1,1.8959527E-1,2.6224896E-1,7.9108156E-2,3.1547216E-1,-2.982E3,1E0,1E0,-7.152E3,4.95E5,1E0,-5.2E2,-1.801E3,1.0206E4,-1.0519E4,6E0,8E0,2.3563889E-1,-2.863E3,1E0,5.094732E-1,2.5015342E-1,-1.7805E4,-7.547E3,-4.54E3,2.636865E5,-4.152E3,5.4538554E-1,-2.112E4,1.0211879E-1,-3.052E3,1.71E5,1.6965E4,-6.369959E-2,1.2E-3,6.852516E-1,1.25E-2,3.03E-2,6.929495E-1,8.33E-2,-2.0288E4,5.6689173E-2,3.433336E-2,-5.984E3,6.7065173E-1,4.05E4,1.9487648E-1,1.24785E4,3.122E-3,-1.258E3,5.4423475E-1,-4.161E3,-3.778E3,6.237569E-1,-2.24E2,1.644E-1,1E0,3.6142826E-2,8.189166E-2,-2.3978835E-2,5.0886698E-2,2.5973951E-2,-1.8458853E-2,-1.3072413E-2,6.496491E-2,5.316748E-2,1.8719755E-2,-3.9885715E-3,9.955845E-2,-5.882017E-2,-1.1186717E-2,-1.1216817E-2,1.9775776E-2,1.9358207E-1,1.673207E-2,7.0304744E-2,2.9756385E-3,1.4066105E-1,-1.9753104E-2,-8.4494606E-2,-2.9151995E-2,1.232801E-2,-4.622544E-2,1.07975E-2,-5.9811022E-2,-4.7991764E-2,-1.5686417E-2,2.1548932E-2,-6.79975E-2,-2.8740933E-2,2.4488245E-1,-1.6410562E-3,-5.3195577E-2,9.633517E-2,-2.830728E-2,-2.6914898E-2,2.4547664E-2,1.3812374E-1,-4.073892E-2,-5.9502102E-2,6.67528E-2,2.0911924E-3,-5.435291E-2,-6.281426E-2,-3.4095425E-2,-4.720966E-2,-7.923539E-3,-1.3503124E-2,-5.9795644E-2,-3.206356E-2,1.5228172E-1,-9.443035E-2,-2.5402253E-2,-6.49616E-2,5.4630935E-2],"split_indices":[29,28,28,28,27,7,27,29,29,27,29,9,12,79,8,4,74,9,7,3,6,10,10,27,9,99,27,27,6,8,9,2,9,27,6,29,7,2,3,0,57,28,72,67,27,51,6,0,28,7,29,1,0,3,5,7,29,9,7,27,77,54,99,0,0,0,0,0,0,0,0,0,0,0,0,0,0,0,0,0,0,0,0,0,0,0,0,0,0,0,0,0,0,0,0,0,0,0,0,0,0,0,0,0,0,0,0,0,0,0,0,0,0,0,0,0,0,0,0,0,0],"split_type":[0,0,0,0,0,0,0,0,0,0,0,0,0,0,0,0,0,0,0,0,0,0,0,0,0,0,0,0,0,0,0,0,0,0,0,0,0,0,0,0,0,0,0,0,0,0,0,0,0,0,0,0,0,0,0,0,0,0,0,0,0,0,0,0,0,0,0,0,0,0,0,0,0,0,0,0,0,0,0,0,0,0,0,0,0,0,0,0,0,0,0,0,0,0,0,0,0,0,0,0,0,0,0,0,0,0,0,0,0,0,0,0,0,0,0,0,0,0,0,0,0],"sum_hessian":[1.3458023E4,9.527453E3,3.9305706E3,6.9764834E3,2.5509697E3,1.1897406E3,2.7408298E3,3.151547E3,3.8249363E3,2.3179956E2,2.3191702E3,1.2324492E2,1.0664957E3,2.2416116E3,4.9921826E2,4.9423654E2,2.6573105E3,9.7098535E2,2.853951E3,1.3610051E1,2.181895E2,6.7718164E2,1.6419885E3,6.9108635E1,5.4136284E1,2.586036E2,8.0789215E2,6.522802E2,1.5893314E3,1.6230641E2,3.3691183E2,3.551362E2,1.3910034E2,2.3013906E3,3.5591995E2,8.964108E2,7.45745E1,9.5866797E2,1.895283E3,1.314793E0,1.22952585E1,1.3892676E2,7.926274E1,8.611191E1,5.910697E2,2.6075217E2,1.3812365E3,1.4499592E0,6.7658676E1,2.9272046E0,5.120908E1,2.5693436E2,1.66926E0,6.9864075E2,1.092514E2,3.600419E1,6.16276E2,5.5782837E2,1.031503E3,1.4520544E2,1.710097E1,6.414575E1,2.7276608E2,1.1017615E2,2.4496004E2,3.0804174E1,1.08296165E2,2.1074214E3,1.9396907E2,4.1972126E1,3.1394785E2,1.8585196E2,7.105589E2,1.521202E1,5.9362484E1,6.643971E1,8.922283E2,5.7165936E2,1.3236235E3,9.406559E0,2.8886993E0,8.121305E1,5.771371E1,3.8129253E0,7.5449814E1,1.5273319E1,7.083859E1,5.4107684E2,4.999286E1,1.356062E1,2.4719156E2,3.13883E2,1.0673534E3,2.7987585E0,6.485992E1,1.6409111E0,1.2862936E0,2.8023733E1,2.3185347E1,4.382525E0,2.5255182E2,9.287224E1,6.057685E2,2.6916788E0,1.0655972E2,1.807354E1,1.793065E1,1.7390614E1,5.9888544E2,1.7141393E2,3.8641443E2,1.9800433E2,8.334987E2,2.088014E1,1.2432531E2,1.4205884E1,2.8950853E0,5.8783173E1,5.362579E0,2.712254E2,1.5407068E0],"tree_param":{"num_deleted":"0","num_feature":"104","num_nodes":"121","size_leaf_vector":"1"}},{"base_weights":[-7.089393E-3,8.693533E-2,-2.604689E-1,2.68446E-1,-1.749996E-2,-5.6345142E-2,-3.807508E-1,7.9881705E-2,3.2874587E-1,1.4716026E-1,-1.0874047E-1,6.157826E-1,-9.073284E-2,-3.1435722E-1,-6.0451114E-1,-9.356262E-2,1.7217493E-1,4.2825788E-1,1.879155E-1,2.4954225E-1,-3.8404807E-2,-3.019298E-2,-2.9371288E-1,7.971672E-1,-8.808183E-2,-4.376539E-2,-4.2341405E-1,-2.4584097E-1,-5.483905E-1,-6.243176E-1,-2.085892E-1,-1.2595719E-1,8.566027E-1,2.1440388E-1,-3.9580294E-1,2.705097E-1,6.819003E-1,3.700478E-2,3.4354177E-1,9.78257E-2,4.0464604E-1,3.8705576E-2,-4.0664387E-1,3.528409E-2,-2.4791577E-1,-4.834733E-1,-2.2080714E-1,1.0354538E0,-3.2028522E-2,1.1926907E0,-3.9826363E-1,2.7264342E-1,-8.8563606E-2,-2.386172E-1,-7.545044E-1,-1.7367694E-1,-5.013451E-1,-7.1876395E-1,-3.9314112E-1,-6.324026E-1,1.698304E-1,1.2100389E0,-4.123557E-1,-7.871942E-2,-7.510754E-3,2.1169232E-1,2.6251111E-2,3.4754172E-2,4.7289287E-3,-6.421851E-2,2.6683832E-2,-2.180323E-3,3.6045026E-2,3.4506988E-2,7.615184E-2,1.2910584E-3,9.964186E-2,-5.9192695E-2,4.021337E-2,5.7767094E-3,7.662632E-2,3.421929E-2,9.299215E-2,9.7526155E-2,1.293919E-3,-1.0895436E-2,-6.809035E-2,-9.696515E-3,3.497527E-2,6.9429636E-2,-2.675624E-2,-6.02173E-2,-3.580652E-2,-4.68945E-2,-1.30849695E-2,1.4046392E-1,1.2237638E-2,1.6900502E-1,-3.5401177E-2,-8.915161E-3,1.893488E-1,-7.367693E-2,1.4635532E-2,2.3490703E-2,1.9152237E-1,-3.5975438E-2,-2.1504704E-3,2.3819907E-3,-5.1785138E-2,9.56618E-2,-8.031817E-2,-3.212074E-2,-2.9304072E-3,-6.272642E-2,-2.844882E-2,-8.848265E-2,-6.185759E-2,-2.0400299E-2,-5.355471E-2,5.2516963E-3,-6.4143084E-2,-4.0592212E-2,1.4346069E-1,2.4129911E-1,-2.3765497E-2,-5.594653E-2,1.440254E-1],"categories":[],"categories_nodes":[],"categories_segments":[],"categories_sizes":[],"default_left":[0,0,0,0,0,0,0,0,0,0,0,0,0,0,0,0,0,0,0,0,0,0,0,0,0,0,0,0,0,0,0,0,0,0,0,0,0,0,0,0,0,0,0,0,0,0,0,0,0,0,0,0,0,0,0,0,0,0,0,0,0,0,0,0,0,0,0,0,0,0,0,0,0,0,0,0,0,0,0,0,0,0,0,0,0,0,0,0,0,0,0,0,0,0,0,0,0,0,0,0,0,0,0,0,0,0,0,0,0,0,0,0,0,0,0,0,0,0,0,0,0,0,0,0,0,0,0],"id":11,"left_children":[1,3,5,7,9,11,13,15,17,19,21,23,25,27,29,31,33,35,37,39,41,43,45,47,49,51,53,55,57,59,61,63,65,67,69,71,73,75,77,79,81,83,85,87,89,91,93,95,97,99,101,103,105,107,109,111,113,115,117,119,121,123,125,-1,-1,-1,-1,-1,-1,-1,-1,-1,-1,-1,-1,-1,-1,-1,-1,-1,-1,-1,-1,-1,-1,-1,-1,-1,-1,-1,-1,-1,-1,-1,-1,-1,-1,-1,-1,-1,-1,-1,-1,-1,-1,-1,-1,-1,-1,-1,-1,-1,-1,-1,-1,-1,-1,-1,-1,-1,-1,-1,-1,-1,-1,-1,-1],"loss_changes":[3.197431E2,1.8556111E2,8.916266E1,4.0624878E1,9.3381584E1,3.1211674E1,3.3762756E1,1.3904213E1,3.787854E1,4.211419E1,5.8098244E1,8.462961E0,2.0032398E1,2.8159866E1,3.9621887E0,9.402569E0,1.3675251E1,6.3287384E1,2.6367641E1,3.357202E1,2.2415367E1,4.0044598E1,1.6383774E1,1.0380314E1,6.1837864E0,1.5979097E1,9.526176E0,2.5113472E1,1.0265633E1,3.2953033E0,8.120299E0,9.788754E0,6.994627E0,1.1732382E1,6.6306577E0,2.576522E1,1.603238E1,1.3195492E1,3.0541138E1,1.9325369E1,2.2841232E1,1.5749761E1,1.1084459E1,8.9862236E1,1.2207626E1,4.6967926E0,1.920174E1,1.3550594E1,7.617847E0,2.9104342E0,2.3787274E0,8.218521E0,1.793721E1,7.5804663E0,5.463024E0,2.2722977E1,8.026535E0,2.5959473E0,5.570259E0,3.074234E0,4.8001623E0,6.782838E0,7.2920346E0,0E0,0E0,0E0,0E0,0E0,0E0,0E0,0E0,0E0,0E0,0E0,0E0,0E0,0E0,0E0,0E0,0E0,0E0,0E0,0E0,0E0,0E0,0E0,0E0,0E0,0E0,0E0,0E0,0E0,0E0,0E0,0E0,0E0,0E0,0E0,0E0,0E0,0E0,0E0,0E0,0E0,0E0,0E0,0E0,0E0,0E0,0E0,0E0,0E0,0E0,0E0,0E0,0E0,0E0,0E0,0E0,0E0,0E0,0E0,0E0,0E0,0E0,0E0,0E0],"parents":[2147483647,0,0,1,1,2,2,3,3,4,4,5,5,6,6,7,7,8,8,9,9,10,10,11,11,12,12,13,13,14,14,15,15,16,16,17,17,18,18,19,19,20,20,21,21,22,22,23,23,24,24,25,25,26,26,27,27,28,28,29,29,30,30,31,31,32,32,33,33,34,34,35,35,36,36,37,37,38,38,39,39,40,40,41,41,42,42,43,43,44,44,45,45,46,46,47,47,48,48,49,49,50,50,51,51,52,52,53,53,54,54,55,55,56,56,57,57,58,58,59,59,60,60,61,61,62,62],"right_children":[2,4,6,8,10,12,14,16,18,20,22,24,26,28,30,32,34,36,38,40,42,44,46,48,50,52,54,56,58,60,62,64,66,68,70,72,74,76,78,80,82,84,86,88,90,92,94,96,98,100,102,104,106,108,110,112,114,116,118,120,122,124,126,-1,-1,-1,-1,-1,-1,-1,-1,-1,-1,-1,-1,-1,-1,-1,-1,-1,-1,-1,-1,-1,-1,-1,-1,-1,-1,-1,-1,-1,-1,-1,-1,-1,-1,-1,-1,-1,-1,-1,-1,-1,-1,-1,-1,-1,-1,-1,-1,-1,-1,-1,-1,-1,-1,-1,-1,-1,-1,-1,-1,-1,-1,-1,-1],"split_conditions":[6.20893E-1,4.1534716E-1,4.7045612E-1,1E0,3.0689174E-1,1.9268435E-1,5.150144E-1,-7.68E2,4.545E5,2E0,6.127042E-1,3.5792E-2,6.4200616E-1,6.9409263E-1,2E0,8E0,1.907E-1,3.825E5,-1.328E3,-1.4105E4,7.43E-2,6.795E5,-1.9565E4,2.1E-3,7.48E-2,1.3259749E-1,7.04E-2,7.2489035E-1,2.5029E4,-4.7E1,1.26945E4,1.575E5,1.0276E-2,-1.2341E4,9.921E-1,1.87704E5,2.18475E4,9E0,5.084955E5,1E0,1E0,1.02210855E-2,1.8768208E-1,2.6217E4,7.65E4,-4.152E3,-3.052E3,6.923854E-1,6.296E-3,-1.551E3,5.369175E5,5.4E5,2E0,6.8815434E-1,4.62E-2,-1.3E3,2E0,1E0,6.807823E-1,8.4E-3,-1.6156E4,-5.341E3,5.417E-1,-7.871942E-2,-7.510754E-3,2.1169232E-1,2.6251111E-2,3.4754172E-2,4.7289287E-3,-6.421851E-2,2.6683832E-2,-2.180323E-3,3.6045026E-2,3.4506988E-2,7.615184E-2,1.2910584E-3,9.964186E-2,-5.9192695E-2,4.021337E-2,5.7767094E-3,7.662632E-2,3.421929E-2,9.299215E-2,9.7526155E-2,1.293919E-3,-1.0895436E-2,-6.809035E-2,-9.696515E-3,3.497527E-2,6.9429636E-2,-2.675624E-2,-6.02173E-2,-3.580652E-2,-4.68945E-2,-1.30849695E-2,1.4046392E-1,1.2237638E-2,1.6900502E-1,-3.5401177E-2,-8.915161E-3,1.893488E-1,-7.367693E-2,1.4635532E-2,2.3490703E-2,1.9152237E-1,-3.5975438E-2,-2.1504704E-3,2.3819907E-3,-5.1785138E-2,9.56618E-2,-8.031817E-2,-3.212074E-2,-2.9304072E-3,-6.272642E-2,-2.844882E-2,-8.848265E-2,-6.185759E-2,-2.0400299E-2,-5.355471E-2,5.2516963E-3,-6.4143084E-2,-4.0592212E-2,1.4346069E-1,2.4129911E-1,-2.3765497E-2,-5.594653E-2,1.440254E-1],"split_indices":[28,29,29,79,28,27,27,77,4,103,29,5,27,29,102,73,41,2,7,6,55,4,6,57,40,29,72,28,3,9,3,4,5,6,32,2,3,75,2,24,76,28,28,3,1,9,7,28,5,7,2,1,19,28,68,7,103,79,28,44,6,8,51,0,0,0,0,0,0,0,0,0,0,0,0,0,0,0,0,0,0,0,0,0,0,0,0,0,0,0,0,0,0,0,0,0,0,0,0,0,0,0,0,0,0,0,0,0,0,0,0,0,0,0,0,0,0,0,0,0,0,0,0,0,0,0,0],"split_type":[0,0,0,0,0,0,0,0,0,0,0,0,0,0,0,0,0,0,0,0,0,0,0,0,0,0,0,0,0,0,0,0,0,0,0,0,0,0,0,0,0,0,0,0,0,0,0,0,0,0,0,0,0,0,0,0,0,0,0,0,0,0,0,0,0,0,0,0,0,0,0,0,0,0,0,0,0,0,0,0,0,0,0,0,0,0,0,0,0,0,0,0,0,0,0,0,0,0,0,0,0,0,0,0,0,0,0,0,0,0,0,0,0,0,0,0,0,0,0,0,0,0,0,0,0,0,0],"sum_hessian":[1.3419136E4,9.787734E3,3.631401E3,3.5741748E3,6.2135596E3,1.3469816E3,2.2844194E3,8.66587E2,2.707588E3,2.2152043E3,3.9983552E3,6.4737724E1,1.2822439E3,1.7635487E3,5.208706E2,3.0096927E2,5.656177E2,1.5853347E3,1.1222532E3,1.4273478E3,7.878566E2,2.8073801E3,1.190975E3,5.1367786E1,1.3369942E1,1.1246052E3,1.576386E2,1.3657565E3,3.977923E2,4.955055E2,2.5365112E1,2.9188528E2,9.083986E0,5.270539E2,3.8563755E1,9.7871045E2,6.0662427E2,5.7038696E2,5.518662E2,7.2237714E2,7.049707E2,6.521825E2,1.3567412E2,2.1589456E3,6.4843463E2,3.290045E2,8.619705E2,3.9708096E1,1.1659688E1,2.0519783E0,1.1317964E1,1.3884688E2,9.8575836E2,1.0227492E2,5.5363678E1,1.0662787E3,2.9947772E2,1.8792755E2,2.0986475E2,4.9071335E2,4.792136E0,2.5655212E0,2.2799591E1,1.9809277E1,2.7207602E2,2.0890117E0,6.9949746E0,2.9274692E2,2.34307E2,2.8133917E1,1.0429836E1,2.3045941E2,7.4825104E2,1.1699625E2,4.89628E2,5.574021E2,1.2984837E1,3.199158E1,5.1987463E2,6.8255865E2,3.9818447E1,6.3153516E2,7.343555E1,1.6475655E1,6.3570685E2,6.572813E1,6.994599E1,1.5202842E3,6.386613E2,1.2543307E1,6.358913E2,1.670699E2,1.6193459E2,2.2822469E2,6.3374585E2,2.7892101E1,1.1815996E1,1.1673605E0,1.0492327E1,1.0338068E0,1.0181715E0,6.7621574E0,4.5558066E0,1.3684601E2,2.0008693E0,1.9456392E2,7.9119446E2,5.3194748E1,4.908017E1,1.0154636E0,5.4348213E1,5.267665E2,5.395122E2,1.8826698E2,1.11210724E2,6.7768715E1,1.2015883E2,9.118665E1,1.18678085E2,6.321521E0,4.8439185E2,3.7596996E0,1.0324368E0,1.0370271E0,1.528494E0,2.1769E1,1.030592E0],"tree_param":{"num_deleted":"0","num_feature":"104","num_nodes":"127","size_leaf_vector":"1"}},{"base_weights":[-6.822009E-3,8.1563905E-2,-2.3301522E-1,2.5415957E-1,-6.8371403E-3,-1.0338354E-1,-4.0325937E-1,2.8746405E-1,-5.1360723E-2,3.0812979E-2,-3.578977E-1,-5.7564747E-2,-3.8324505E-1,-5.702372E-1,-3.3437264E-1,-1.0873164E-1,3.2233506E-1,-3.51616E-1,7.069264E-2,2.1105744E-1,-3.210928E-2,-2.8173807E-1,-5.9197825E-1,-2.528739E-1,5.962371E-3,-4.7463742E-1,-1.18252374E-1,2.8963727E-1,-5.8674145E-1,-7.6143014E-1,-2.986253E-1,-2.7814975E-1,2.0044687E-1,3.7285522E-1,8.625939E-2,1.3866425E-1,-5.579488E-1,-7.427015E-1,1.08278014E-1,-6.1214518E-2,2.610591E-1,-1.7625254E-1,4.5215007E-2,-3.5544062E-1,-7.496726E-2,-3.389099E-1,-7.2416914E-1,-2.732724E-1,7.106424E-1,8.454706E-2,-2.4079536E-1,-3.7523368E-1,-6.6897506E-1,-7.3024577E-1,-4.9953456E-3,-8.494958E-2,1.2406698E0,-6.9455445E-1,-4.6393567E-1,-7.912522E-1,6.173392E-2,-2.359473E-1,-5.017284E-1,1.3280912E-2,-4.4358697E-2,-5.78776E-2,4.817086E-2,2.2368947E-2,4.8342917E-2,2.6919136E-2,-7.360456E-3,1.446333E-1,-1.11955125E-2,3.9256044E-4,-6.903803E-2,-9.0968795E-2,3.2539614E-2,5.7380684E-2,3.0825145E-3,-1.1515699E-2,1.1193823E-1,-5.753116E-3,3.0840678E-2,-1.2984543E-2,-5.0251026E-2,-1.5360522E-2,1.3669054E-2,-2.2595197E-2,-5.054238E-2,-1.1260256E-2,1.2828329E-1,8.788615E-3,-5.5286974E-2,-7.4100435E-2,3.8174327E-2,-1.2401256E-2,-3.7803765E-2,-1.9456733E-2,2.2487028E-1,-6.004916E-3,3.7243124E-2,-1.6910722E-2,-8.9591645E-2,-1.8042495E-2,-6.0853165E-2,9.3110016E-4,-7.556805E-2,4.571461E-2,-8.775199E-2,-5.846128E-2,1.5646677E-2,-4.5078184E-2,2.5477204E-1,-1.5291299E-2,-7.201719E-2,-3.134746E-2,-6.298723E-2,-8.103063E-2,1.8630022E-2,-4.3316167E-2,-1.38835525E-2,-5.9829812E-2,-3.036029E-2],"categories":[],"categories_nodes":[],"categories_segments":[],"categories_sizes":[],"default_left":[0,0,0,0,0,0,0,0,0,0,0,0,0,0,0,0,0,0,0,0,0,0,0,0,0,0,0,0,0,0,0,0,0,0,0,0,0,0,0,0,0,0,0,0,0,0,0,0,0,0,0,0,0,0,0,0,0,0,0,0,0,0,0,0,0,0,0,0,0,0,0,0,0,0,0,0,0,0,0,0,0,0,0,0,0,0,0,0,0,0,0,0,0,0,0,0,0,0,0,0,0,0,0,0,0,0,0,0,0,0,0,0,0,0,0,0,0,0,0,0,0,0,0],"id":12,"left_children":[1,3,5,7,9,11,13,15,17,19,21,23,25,27,29,31,33,35,37,39,41,43,45,47,49,51,53,55,57,59,61,63,65,67,69,71,73,75,77,79,81,83,85,87,89,91,93,95,97,99,101,103,105,107,109,-1,111,113,115,117,-1,119,121,-1,-1,-1,-1,-1,-1,-1,-1,-1,-1,-1,-1,-1,-1,-1,-1,-1,-1,-1,-1,-1,-1,-1,-1,-1,-1,-1,-1,-1,-1,-1,-1,-1,-1,-1,-1,-1,-1,-1,-1,-1,-1,-1,-1,-1,-1,-1,-1,-1,-1,-1,-1,-1,-1,-1,-1,-1,-1,-1,-1],